tree
version=v3
num_class=1
num_tree_per_iteration=1
label_index=0
max_feature_idx=6
objective=regression
feature_names=a b c d e f g
feature_infos=[0:8] [2:62182] [35:939723] [2:241767] [2:62182] [4:104856] [6:56752]
tree_sizes=8515 8641 8593 8574 8594 8593 8625 8610 8612 8629 8641 8636 8591 8645 8676 8619 8664 8627 8646 8658 8697 8611 8725 8651 8634 8696 8656 8651 8661 8672 8642 8667 8681 8658 8659 8655 8676 8271 7499 6968 8654 6376 7211 6053 4443 4047 3934 4694 2727 3456 4876 2884 3141 2889 3666 2138 3161 2639 2565 1776 3147 2121 2098 1438 1596 1617 1585 1255 1347 1260 1177 1331 1170 1348 1261 1262 1933 1254 1080 1008 1751 1084 1011 1851 1170 1095 1083 1010 1007 1013 1087 1339 1869 1915 1343 917 1266 922 1087 1086 1090 1343 925 1091 1087 1351 926 1271 1871 1093 925 1093 1090 1334 1256 1174 1083 1100 1009 1749 1102 1761 1083 1089 1431 1012 1005 1090 1429 1003 1011 1092 1078 1089 1090 1172 1089 1421 1427 1258 1007 1176 1091 1168 1418 2004 1171 1092 1013 1266 1004 1252 1248 1076 1018 1343 1424 1010 1005 1418 1365 1171 1010 923 1084 1177 1009 1089 929 927 1423 929 1095 1091 1098 1506 924 1089 1023 1005 1345 1010 1095 1175 1579 1668 1183 1087 1504 1094 1509 1015 1591 1263 1263 922 1270 1343 1338 1087

Tree=0
num_leaves=100
num_cat=0
split_feature=3 3 1 1 2 1 3 3 3 3 3 0 0 0 1 3 3 3 3 3 3 1 0 0 3 1 2 3 1 2 3 1 0 1 3 3 1 2 3 1 2 2 1 3 3 3 1 1 1 1 1 1 1 3 2 1 1 3 3 2 2 1 2 2 3 3 1 1 1 1 2 3 3 1 1 1 3 1 3 1 1 2 0 1 1 0 1 3 3 1 3 1 1 2 3 2 3 3 3
split_gain=3.52245e+16 6.32455e+15 5.965e+15 1.85267e+15 1.34576e+15 7.61689e+14 4.40695e+14 3.27594e+14 2.64059e+14 2.07807e+14 1.26319e+14 9.04948e+13 8.2655e+13 6.96194e+13 6.99679e+13 6.08622e+13 5.47155e+13 3.79051e+13 3.27781e+13 3.27295e+13 3.00824e+13 2.77767e+13 2.28573e+13 1.77847e+13 1.65442e+13 1.31686e+13 1.26919e+13 9.98423e+12 8.27551e+12 8.2624e+12 7.70174e+12 7.62548e+12 5.25627e+12 5.2475e+12 5.09639e+12 2.96075e+12 2.82331e+12 2.66259e+12 2.16356e+12 1.98488e+12 1.96133e+12 1.75403e+12 1.74559e+12 1.36933e+12 1.07066e+12 1.06991e+12 1.0413e+12 1.00399e+12 9.88619e+11 9.25057e+11 8.91414e+11 7.96479e+11 7.34573e+11 6.85339e+11 6.6948e+11 6.34883e+11 5.33875e+11 4.97342e+11 4.25622e+11 3.45592e+11 3.45318e+11 3.3931e+11 3.30097e+11 3.17545e+11 2.76311e+11 2.69149e+11 2.67801e+11 2.2948e+11 2.14703e+11 1.44295e+11 1.42933e+11 1.40802e+11 1.34423e+11 1.25531e+11 1.2509e+11 1.22505e+11 1.21888e+11 1.06646e+11 9.84638e+10 9.64352e+10 7.24422e+10 7.23784e+10 6.81323e+10 6.58237e+10 6.57439e+10 6.54307e+10 6.01218e+10 5.74702e+10 5.1628e+10 5.00033e+10 4.42607e+10 4.3406e+10 4.32758e+10 4.2313e+10 3.75878e+10 3.53857e+10 3.04075e+10 2.5739e+10 2.3274e+10
threshold=10796.000000000002 3675.0000000000005 25867.500000000004 10969.000000000002 286431.50000000006 5888.5000000000009 1331.5000000000002 30816.500000000004 28344.000000000004 155970.00000000003 4653.5000000000009 1.0000000180025095e-35 1.0000000180025095e-35 1.0000000180025095e-35 4802.0000000000009 430.50000000000006 2882.5000000000005 30370.000000000004 23849.000000000004 8127.5000000000009 16853.500000000004 8697.0000000000018 1.0000000180025095e-35 1.0000000180025095e-35 5928.5000000000009 3318.5000000000005 31061.000000000004 172.00000000000003 1790.5000000000002 11566.000000000002 13211.000000000002 3770.0000000000005 1.0000000180025095e-35 5508.0000000000009 24154.500000000004 33681.500000000007 6647.0000000000009 84065.000000000015 1754.5000000000002 6162.5000000000009 24454.500000000004 141488.00000000003 3037.5000000000005 92.500000000000014 965.00000000000011 294.00000000000006 543.00000000000011 858.50000000000011 634.50000000000011 1362.5000000000002 2299.5000000000005 497.50000000000006 5189.0000000000009 6241.0000000000009 8690.0000000000018 1662.5000000000002 3037.5000000000005 22677.000000000004 17759.000000000004 35951.000000000007 60491.000000000007 1071.5000000000002 45508.500000000007 2802.5000000000005 1518.0000000000002 110.50000000000001 252.50000000000003 2424.5000000000005 1165.5000000000002 1012.0000000000001 5197.0000000000009 828.00000000000011 1113.5000000000002 710.00000000000011 2277.5000000000005 573.50000000000011 1669.5000000000002 16.500000000000004 3123.5000000000005 743.50000000000011 172.50000000000003 40152.500000000007 1.0000000180025095e-35 48.500000000000007 700.50000000000011 2.5000000000000004 592.50000000000011 249.00000000000003 4445.0000000000009 1572.5000000000002 149.50000000000003 1012.0000000000001 307.50000000000006 22495.000000000004 15906.000000000002 84057.500000000015 1044.5000000000002 772.00000000000011 1113.5000000000002
decision_type=2 2 2 2 2 2 2 2 2 2 2 2 2 2 2 2 2 2 2 2 2 2 2 2 2 2 2 2 2 2 2 2 2 2 2 2 2 2 2 2 2 2 2 2 2 2 2 2 2 2 2 2 2 2 2 2 2 2 2 2 2 2 2 2 2 2 2 2 2 2 2 2 2 2 2 2 2 2 2 2 2 2 2 2 2 2 2 2 2 2 2 2 2 2 2 2 2 2 2
left_child=1 6 3 4 13 10 15 18 37 -4 22 -10 28 14 31 27 26 34 33 24 25 -9 69 79 49 42 32 43 53 46 -27 60 51 52 -16 -19 -20 94 64 -7 -26 67 -15 77 71 82 54 78 75 -14 59 76 -6 68 63 -40 61 -35 -33 -30 -2 91 84 -17 -34 -45 70 -21 -12 93 -47 97 96 -48 85 -28 -8 -1 -25 -18 -56 -41 -29 -79 -50 -49 -53 -84 -63 -55 -67 -24 -74 -3 95 -5 -46 -31 -75
right_child=2 5 9 8 7 39 16 21 11 -11 12 -13 19 20 17 29 23 35 36 41 -22 -23 56 47 40 30 48 45 50 44 -32 58 38 57 -36 -37 -38 -39 55 81 -42 -43 -44 65 72 66 73 74 62 -51 -52 86 -54 89 80 -57 -58 -59 -60 -61 -62 88 -64 -65 -66 90 -68 -69 -70 -71 -72 -73 92 98 -76 -77 -78 83 -80 -81 -82 -83 87 -85 -86 -87 -88 -89 -90 -91 -92 -93 -94 -95 -96 -97 -98 -99 -100
leaf_value=273577.18819255312 395722.14604212937 311118.68809570081 1601065.6963546295 727756.39360462944 667034.61445807759 479813.70308539865 287362.60659518692 924843.32968796277 804972.4154022485 2040855.0058784392 317186.26436058176 1075634.603021296 370638.03796177224 494101.42760462943 502844.51714410307 279994.57533101249 301540.54928537837 585609.60396332503 766835.80544553848 448400.3244796294 641116.81547227642 1064653.4296879626 348923.04583379603 332623.95762356877 414386.89556277421 600149.09721669834 314867.01116254221 275233.71757622028 351295.14801478566 287536.71558017289 547848.14883396821 449147.77468796272 300597.92471704091 712888.13206891506 534921.18553373381 636924.73840008397 814709.52046177222 761721.5280853986 310034.8752341076 493655.98357685161 404017.68780797871 472298.79194286471 521460.66088951309 274761.7372086877 292914.83224089991 278383.39435818628 289485.22886225133 336132.65377650439 323955.06821368553 387332.48603678338 379290.63445946813 295796.56068926479 688171.04767041886 337439.24997962941 284716.09654517815 320942.68243861379 373460.95146826573 731605.68635462946 465607.14862735668 364091.84413688746 412473.9524093169 358202.14729939681 339235.1085421294 282964.86183287523 304546.86551798473 275282.02232891234 281033.07717437577 436350.91659272462 328349.33681686898 320772.86145879608 279981.73918174929 291089.80433468969 295629.26327729889 294111.5653888341 343995.29984584032 319664.98012866784 291684.56951265782 274034.39641688147 337504.45203244628 306864.20555601828 286736.22751984256 490601.65369206353 276870.5901763037 274632.34976782731 327860.25719066837 341699.35543893173 299475.13599032792 277593.04032304336 362516.78762618115 343901.67026767286 275748.26311216701 353606.87419553846 298320.62425269303 315104.67713224568 730429.04843796277 729357.06418832741 294324.81130127574 289107.52704057336 298307.52666957077
leaf_weight=5015 20 70 22 200 29 208 139 27 21 21 21 30 35 32 190 479 92 23 22 64 34 30 36 99 221 29 109 220 32 184 968 30 361 49 67 22 28 26 321 90 1045 34 86 11153 244 3075 82 28 98 643 31 75 38 25 328 64 22 20 33 62 32 645 20 1448 348 4027 552 21 96 27 684 373 236 39 512 104 123 22439 71 54 387 569 5232 2006 77 86 109 1395 29 23 4121 44 80 43 204 457 410 241 20
leaf_count=5015 20 70 22 200 29 208 139 27 21 21 21 30 35 32 190 479 92 23 22 64 34 30 36 99 221 29 109 220 32 184 968 30 361 49 67 22 28 26 321 90 1045 34 86 11153 244 3075 82 28 98 643 31 75 38 25 328 64 22 20 33 62 32 645 20 1448 348 4027 552 21 96 27 684 373 236 39 512 104 123 22439 71 54 387 569 5232 2006 77 86 109 1395 29 23 4121 44 80 43 204 457 410 241 20
internal_value=298576 284973 647160 628866 569730 405002 277603 788686 742914 1.81585e+06 382901 964186 395166 535754 500755 275890 315806 526032 724411 402193 548456 998428 351395 335593 399077 545631 306238 275044 345177 287039 549369 434375 302083 698957 511207 610697 793645 730191 305813 488331 405828 453102 514041 274426 292385 277742 283643 341477 321920 386471 364585 292933 679022 330474 283196 311848 358105 718314 457769 359736 406031 357657 327064 282227 302536 275081 278976 445423 326346 314205 278674 289672 294617 292016 343328 317210 289392 273997 334662 303510 285810 491019 276965 274083 325673 340332 297976 277023 358388 340536 275518 351499 296311 312636 729239 728870 293799 288427 295534
internal_weight=0 71496 2790 2747 1809 4136 67360 243 938 43 3269 51 2353 1566 417 64470 2890 302 186 2063 1149 57 916 942 1944 1115 1948 59919 290 4551 997 115 1540 136 257 45 50 887 1094 867 1266 119 118 48761 1768 11158 2783 796 408 678 125 446 67 165 2642 385 776 69 63 94 52 754 195 1927 709 19301 4311 85 117 140 3759 798 970 141 626 213 262 29460 170 146 715 659 6847 24445 175 114 184 6627 674 48 8148 80 316 113 861 657 654 425 59
internal_count=74286 71496 2790 2747 1809 4136 67360 243 938 43 3269 51 2353 1566 417 64470 2890 302 186 2063 1149 57 916 942 1944 1115 1948 59919 290 4551 997 115 1540 136 257 45 50 887 1094 867 1266 119 118 48761 1768 11158 2783 796 408 678 125 446 67 165 2642 385 776 69 63 94 52 754 195 1927 709 19301 4311 85 117 140 3759 798 970 141 626 213 262 29460 170 146 715 659 6847 24445 175 114 184 6627 674 48 8148 80 316 113 861 657 654 425 59
is_linear=0
shrinkage=1


Tree=1
num_leaves=100
num_cat=0
split_feature=3 3 1 1 3 1 3 0 3 3 0 3 3 1 0 0 1 3 3 3 1 0 0 3 1 1 3 0 1 3 3 3 3 3 1 1 0 3 1 3 3 1 1 1 3 3 1 1 3 1 1 1 1 3 1 3 1 1 3 1 3 3 0 1 1 3 3 1 1 1 3 3 1 1 3 3 3 3 3 1 3 3 1 0 3 3 3 3 1 0 3 3 1 1 1 1 3 1 1
split_gain=2.85318e+16 5.12289e+15 4.83165e+15 1.50183e+15 7.06534e+14 6.16968e+14 3.56963e+14 3.14904e+14 2.12515e+14 1.68324e+14 1.58235e+14 2.28755e+14 1.02318e+14 9.02989e+13 7.70308e+13 6.69505e+13 5.05934e+13 4.94096e+13 4.43195e+13 2.65109e+13 2.04802e+13 1.85144e+13 1.44056e+13 1.34008e+13 1.32633e+13 1.28651e+13 1.06993e+13 8.29368e+12 7.79141e+12 7.27472e+12 7.18057e+12 6.83471e+12 6.71452e+12 3.18101e+12 2.5703e+12 2.45582e+12 2.41002e+12 2.56391e+12 1.99489e+12 1.73985e+12 1.69437e+12 1.60775e+12 1.49605e+12 1.21404e+12 1.15262e+12 1.10916e+12 8.49648e+11 8.13225e+11 7.56916e+11 7.49292e+11 6.46554e+11 5.83585e+11 4.32435e+11 4.05605e+11 4.00558e+11 3.78924e+11 3.47959e+11 3.31723e+11 3.28921e+11 2.76184e+11 2.704e+11 2.65311e+11 2.37458e+11 2.73066e+11 2.2996e+11 2.19978e+11 2.18027e+11 2.13473e+11 1.73908e+11 1.52485e+11 1.33693e+11 1.24647e+11 1.16878e+11 1.07558e+11 9.98465e+10 8.64519e+10 8.09918e+10 7.97539e+10 7.93509e+10 7.81122e+10 7.13083e+10 7.06389e+10 5.62749e+10 5.5186e+10 5.04679e+10 4.445e+10 4.34736e+10 4.19101e+10 3.72878e+10 3.10975e+10 3.01767e+10 2.74963e+10 2.38521e+10 2.04071e+10 2.03658e+10 1.81271e+10 1.49571e+10 1.44295e+10 1.26451e+10
threshold=10796.000000000002 3675.0000000000005 25867.500000000004 10597.500000000002 26701.000000000004 5888.5000000000009 1331.5000000000002 2.5000000000000004 28344.000000000004 155970.00000000003 2.5000000000000004 17759.000000000004 4653.5000000000009 4935.0000000000009 1.0000000180025095e-35 1.0000000180025095e-35 8697.0000000000018 583.00000000000011 2882.5000000000005 8127.5000000000009 5766.0000000000009 1.0000000180025095e-35 1.0000000180025095e-35 5928.5000000000009 3527.5000000000005 5508.0000000000009 172.00000000000003 1.0000000180025095e-35 7802.0000000000009 2055.0000000000005 15810.000000000002 16853.500000000004 7576.5000000000009 23849.000000000004 7408.0000000000009 3896.0000000000005 1.0000000180025095e-35 891.00000000000011 3037.5000000000005 354.50000000000006 23296.000000000004 6162.5000000000009 5165.0000000000009 4487.5000000000009 1669.5000000000002 92.500000000000014 2072.0000000000005 858.50000000000011 2501.5000000000005 1362.5000000000002 479.50000000000006 2299.5000000000005 3037.5000000000005 18781.000000000004 10300.000000000002 6241.0000000000009 2299.5000000000005 13283.000000000002 13211.000000000002 1050.5000000000002 294.00000000000006 684.50000000000011 2.5000000000000004 275.50000000000006 227.50000000000003 1063.0000000000002 116.50000000000001 2685.5000000000005 1165.5000000000002 1926.0000000000002 1922.0000000000002 449.00000000000006 1012.0000000000001 2198.0000000000005 1435.0000000000002 51.500000000000007 2363.5000000000005 3123.5000000000005 3458.5000000000005 743.50000000000011 2225.5000000000005 1669.5000000000002 57.500000000000007 1.0000000180025095e-35 1044.5000000000002 828.00000000000011 4445.0000000000009 1120.0000000000002 897.50000000000011 2.5000000000000004 149.50000000000003 8127.5000000000009 172.50000000000003 1012.0000000000001 13.500000000000002 180.50000000000003 2963.0000000000005 337.00000000000006 677.50000000000011
decision_type=2 2 2 2 2 2 2 2 2 2 2 2 2 2 2 2 2 2 2 2 2 2 2 2 2 2 2 2 2 2 2 2 2 2 2 2 2 2 2 2 2 2 2 2 2 2 2 2 2 2 2 2 2 2 2 2 2 2 2 2 2 2 2 2 2 2 2 2 2 2 2 2 2 2 2 2 2 2 2 2 2 2 2 2 2 2 2 2 2 2 2 2 2 2 2 2 2 2 2
left_child=1 6 3 4 10 12 17 34 30 -4 13 24 21 31 -10 32 28 26 27 23 40 72 79 49 38 42 45 50 -9 44 -5 58 55 -27 -6 -26 64 61 -12 60 -15 -7 -13 -25 74 75 91 77 80 -17 81 -21 59 -33 -22 68 -48 -32 -2 93 83 92 63 -41 95 84 -47 -53 -14 -50 -46 -64 88 78 -29 94 -52 96 -49 98 -31 97 -77 -28 -39 -63 -61 -67 -3 -62 -68 -34 -38 -23 -1 -19 -24 -8 -20
right_child=2 5 9 8 7 41 18 16 14 -11 11 25 15 20 -16 19 -18 36 22 51 54 52 47 43 35 33 39 29 -30 48 57 53 46 -35 -36 -37 37 65 -40 62 -42 -43 -44 -45 70 66 56 73 69 -51 76 67 -54 -55 -56 -57 -58 -59 -60 86 89 85 71 -65 -66 87 90 -69 -70 -71 -72 -73 -74 -75 -76 82 -78 -79 -80 -81 -82 -83 -84 -85 -86 -87 -88 -89 -90 -91 -92 -93 -94 -95 -96 -97 -98 -99 -100
leaf_value=-22809.770993125905 89756.071064814823 10420.469210069445 1172240.9045454545 338271.56724137929 252485.57678571428 163114.10673076924 -11006.299898538962 486164.89800000004 452997.01250000001 1568051.2904761906 175973.06875000001 322048.11477272731 16749.421056547621 182572.86625000002 699352.94000000006 64856.016607142861 689469.8833333333 -17013.038531454247 1593.6771103515625 125140.00416666668 212368.15352564107 45312.524652777778 28903.960700757576 101042.07404320988 231613.36710526317 377763.98079710151 -21007.870965909093 1355.6611063790588 563640.78333333333 14734.382297207449 387714.00805214723 140363.27119565217 44556.088906249999 421434.01818181819 296601.45699999999 261300.49772727271 -12265.770980155787 -5647.183540008984 204002.25477642278 -18081.984155062612 202919.70863636365 173198.69216616085 347453.10102040815 94402.88322444832 7951.7534159593624 -21415.849682164961 59478.655921052632 33714.122516025644 24061.299381188121 79881.020917573886 -3355.9677432038065 145581.35533088236 67396.642613636373 157423.16312500002 222741.4008950243 36375.046474358976 72643.356854838712 392191.1004504505 105366.60856481481 53589.59386819214 -18494.902616122668 -9407.888887764464 -16009.843389168433 -15552.602918130548 -12549.946393960674 -3215.2918894763561 -20945.25858991703 135069.38333333333 26796.184375000001 33014.993750000001 11433.237043626239 -13868.874533704189 19977.358159722222 40831.659798728819 3986.7026021190782 -22069.546424550776 651.05134517482065 35035.790052816905 39589.997767857145 7459.5684172453712 18204.896640625 -6596.4348080413511 -21284.451830310201 -19397.816582022409 -4019.6543031150163 -7706.4630373430036 57546.891271551722 -1293.6672581407993 14131.59963235294 -17743.978270468237 -20544.780117462389 49490.537620192306 -11059.156854917712 48914.576785714286 -22366.316919351921 -15275.964914772727 31512.987973484851 -8956.1609311995981 3947.4925955636159
leaf_weight=1382 27 45 22 29 28 208 77 25 22 21 32 44 21 160 30 35 30 153 50 24 39 36 33 405 76 69 220 269 27 94 652 46 20 22 25 44 337 487 123 1158 55 659 49 861 243 11715 57 39 202 643 86 68 22 20 824 39 31 222 27 661 1394 579 944 676 445 227 3465 27 96 21 202 382 27 531 311 22984 122 71 56 54 160 99 951 6627 313 209 29 227 68 913 4121 26 319 28 4143 99 66 62 42
leaf_count=1382 27 45 22 29 28 208 77 25 22 21 32 44 21 160 30 35 30 153 50 24 39 36 33 405 76 69 220 269 27 94 652 46 20 22 25 44 337 487 123 1158 55 659 49 861 243 11715 57 39 202 643 86 68 22 20 824 39 31 222 27 661 1394 579 944 676 445 227 3465 27 96 21 202 382 27 531 311 22984 122 71 56 54 160 99 951 6627 313 209 29 227 68 913 4121 26 319 28 4143 99 66 62 42
internal_value=0 -12242.6 313726 297261 243284 95783.2 -18875.5 463268 398547 1.36554e+06 225361 275285 75892.8 206233 595125 86931.2 586055 -20416.8 15507.2 93255.5 215393 47537.6 33315.3 90450.8 217539 361590 -21069.5 6895.72 526393 10451.3 387227 123946 41941.1 388322 273295 242499 -8674.87 -7320.66 198216 -18435.7 187778 170779 335434 96526.8 5703.74 -21734.6 58359 38611.5 20653.1 79105.4 -5078.49 139074 53576.3 145533 222273 27838.5 64116.3 388851 97561.4 53173 -19134.1 -10193.4 -16412.6 -17149.7 -13916.9 -4012.66 -21145.4 142594 24992.9 24904.5 9532.12 -15393.1 14066.2 40277.2 2766.45 -22120.7 -1005.68 32477.9 37177.8 4440.42 16920.5 -8637.9 -22038.4 -19449.5 -5010.42 -8956.63 53755.9 -2254.49 12653.7 -18197.7 -20727.7 47345.2 -11679 46888.5 -22477.2 -16330.6 30643.3 -10091.9 2668.28
internal_weight=0 71496 2790 2747 1792 4136 67360 135 955 43 1657 459 3269 1198 52 2353 82 64470 2890 2063 1078 916 942 1944 275 184 61075 1948 52 1502 903 120 290 91 53 120 3395 2698 155 12314 215 867 93 1266 1025 48761 134 796 477 678 446 119 776 66 863 156 88 874 54 754 9154 1444 3160 1834 697 1254 19301 95 117 223 445 1326 140 626 580 29460 208 170 95 146 254 238 23935 6847 800 788 690 454 113 2307 7586 46 656 64 5525 252 99 139 92
internal_count=74286 71496 2790 2747 1792 4136 67360 135 955 43 1657 459 3269 1198 52 2353 82 64470 2890 2063 1078 916 942 1944 275 184 61075 1948 52 1502 903 120 290 91 53 120 3395 2698 155 12314 215 867 93 1266 1025 48761 134 796 477 678 446 119 776 66 863 156 88 874 54 754 9154 1444 3160 1834 697 1254 19301 95 117 223 445 1326 140 626 580 29460 208 170 95 146 254 238 23935 6847 800 788 690 454 113 2307 7586 46 656 64 5525 252 99 139 92
is_linear=0
shrinkage=0.1


Tree=2
num_leaves=100
num_cat=0
split_feature=5 5 5 3 1 1 1 3 5 1 3 1 1 1 5 5 5 3 5 1 1 5 3 1 5 1 1 5 5 5 3 1 1 5 5 1 5 5 1 1 5 1 3 5 5 1 5 1 3 5 1 1 3 3 1 1 5 5 1 3 3 1 1 1 5 1 5 5 5 5 3 3 1 5 5 5 5 5 5 1 1 1 1 5 5 1 1 5 1 3 1 5 1 5 1 1 1 5 3
split_gain=2.41842e+16 4.50607e+15 2.53705e+15 2.14352e+15 7.84686e+14 2.28794e+14 1.91714e+14 1.81134e+14 1.38791e+14 1.02971e+14 9.7091e+13 6.79709e+13 3.00024e+13 2.16141e+13 1.93182e+13 1.74942e+13 1.71601e+13 1.37594e+13 1.1944e+13 1.12181e+13 1.11927e+13 9.51675e+12 9.26363e+12 7.90958e+12 7.4706e+12 6.03166e+12 5.46457e+12 5.02188e+12 4.66493e+12 3.72457e+12 3.37543e+12 3.32807e+12 3.16676e+12 3.02672e+12 2.93992e+12 2.85329e+12 2.22248e+12 2.01036e+12 1.77041e+12 1.72989e+12 1.5679e+12 1.51417e+12 1.27895e+12 1.21161e+12 1.19713e+12 8.24646e+11 7.79922e+11 7.09088e+11 6.63815e+11 6.36939e+11 5.67225e+11 5.4728e+11 5.34247e+11 4.43933e+11 3.79967e+11 3.66541e+11 3.37689e+11 3.26678e+11 3.23155e+11 3.1177e+11 2.93382e+11 2.74228e+11 2.29002e+11 2.28515e+11 2.03357e+11 1.961e+11 1.8972e+11 1.87505e+11 1.87064e+11 1.68713e+11 1.66052e+11 1.65788e+11 1.57397e+11 1.52318e+11 1.28945e+11 1.25311e+11 1.18609e+11 1.05584e+11 9.27709e+10 7.49294e+10 6.63318e+10 6.34495e+10 5.42805e+10 5.36434e+10 5.17728e+10 5.16108e+10 5.13435e+10 4.88338e+10 4.77618e+10 4.47647e+10 4.45465e+10 3.88847e+10 3.65939e+10 3.25357e+10 3.2392e+10 2.66649e+10 2.62688e+10 2.52831e+10 2.49969e+10
threshold=8133.5000000000009 48180.000000000007 18309.500000000004 2963.0000000000005 31292.500000000004 5072.0000000000009 2914.5000000000005 11435.000000000002 845.50000000000011 13206.000000000002 26701.000000000004 2299.5000000000005 5766.0000000000009 973.00000000000011 2411.0000000000005 30034.000000000004 13167.000000000002 249.00000000000003 3542.0000000000005 5607.5000000000009 8119.0000000000009 6467.0000000000009 16853.500000000004 5072.0000000000009 2530.0000000000005 337.00000000000006 2299.5000000000005 11443.000000000002 3715.0000000000005 6849.5000000000009 23849.000000000004 8119.0000000000009 2685.5000000000005 508.50000000000006 9426.5000000000018 1451.5000000000002 165.50000000000003 9809.0000000000018 3770.0000000000005 592.50000000000011 4568.5000000000009 1398.5000000000002 7562.0000000000009 4448.5000000000009 1261.0000000000002 1926.0000000000002 4962.0000000000009 3619.0000000000005 20574.000000000004 1057.5000000000002 5766.0000000000009 307.50000000000006 5704.5000000000009 64.500000000000014 3244.5000000000005 176.50000000000003 1684.5000000000002 10460.000000000002 2424.5000000000005 4222.5000000000009 172.00000000000003 2775.0000000000005 4487.5000000000009 669.00000000000011 2024.5000000000002 651.00000000000011 21112.000000000004 11208.500000000002 4448.5000000000009 349.50000000000006 544.50000000000011 2001.5000000000002 1662.5000000000002 8537.5000000000018 19122.000000000004 1418.5000000000002 1057.5000000000002 276.50000000000006 12470.000000000002 677.50000000000011 1335.0000000000002 5427.5000000000009 151.50000000000003 11208.500000000002 2024.5000000000002 16.500000000000004 421.50000000000006 247.00000000000003 771.50000000000011 354.50000000000006 300.50000000000006 15091.500000000002 762.50000000000011 79.500000000000014 897.50000000000011 1790.5000000000002 63.500000000000007 669.00000000000011 1922.0000000000002
decision_type=2 2 2 2 2 2 2 2 2 2 2 2 2 2 2 2 2 2 2 2 2 2 2 2 2 2 2 2 2 2 2 2 2 2 2 2 2 2 2 2 2 2 2 2 2 2 2 2 2 2 2 2 2 2 2 2 2 2 2 2 2 2 2 2 2 2 2 2 2 2 2 2 2 2 2 2 2 2 2 2 2 2 2 2 2 2 2 2 2 2 2 2 2 2 2 2 2 2 2
left_child=3 2 7 8 9 22 13 11 17 -3 19 34 27 24 25 -12 57 36 47 48 -17 26 38 29 56 44 28 37 35 40 50 -18 58 55 73 -15 53 -9 74 71 62 49 -34 61 76 95 -42 -8 -7 65 -21 70 80 85 -29 69 88 -14 -13 -30 -38 -28 -20 -41 -51 -27 -40 -39 -26 87 97 98 -43 -2 -4 -46 -10 -57 -56 -53 -23 -50 -62 -47 -58 -1 -79 -19 -5 -71 -77 -44 -65 -55 -70 -36 -95 -35 -16
right_child=1 4 5 6 -6 10 18 12 14 -11 15 32 16 21 39 20 31 33 23 30 -22 52 -24 -25 68 41 43 54 59 -31 -32 -33 42 51 45 -37 60 67 66 63 46 72 91 -45 75 83 -48 -49 81 64 -52 79 -54 93 78 77 84 -59 -60 -61 82 -63 -64 92 -66 -67 -68 -69 94 89 -72 -73 -74 -75 -76 90 -78 86 -80 -81 -82 -83 -84 -85 -86 -87 -88 -89 -90 -91 -92 -93 -94 96 -96 -97 -98 -99 -100
leaf_value=-20251.411124656595 74351.979385964907 625517.42575757578 200058.9609375 2805.5607182928857 1367416.5741935484 301478.30263157899 56054.106142241384 137094.35955882352 -9393.5861098345595 913074.70000000007 401515.52317073173 126255.18315217391 189740.31875000001 21041.861515827924 8469.1657608695659 440456.10185185191 235407.57401315789 -17349.086472252155 92888.837055837561 337301.87894736842 529206.19500000007 59129.033750000002 274616.76406250003 135745.57964285716 29352.802315848217 -4858.1483748998398 39928.245148026319 175775.22028301889 44480.461284722231 117439.70171875 388047.80434782611 282387.72599999997 146582.9075 -13825.240333686441 91643.493571428582 36335.271835072403 -18585.028038874021 158416.43696808512 222560.86724137931 18745.514722222226 79035.144211822655 9880.4302827380961 155370.79115761688 67052.780208333337 -4947.5423522949222 106939.23658536587 86119.394277903484 72102.145412844038 315982.42261904763 2040.0193982480951 349775.92311946908 -8286.0368331589962 75866.741791044784 -19672.017371712074 181477.72890625001 -15713.211892825313 10112.403619025736 200363.02529904307 140992.63125000001 51461.159932324845 -17672.885736899563 48722.991426886794 103875.32023809524 23667.289051258995 5387.0682885555825 1089.3331528774529 234584.80000000002 165869.56458333333 33755.543016975309 -15983.941122847147 -11250.270634650737 14167.280902144163 16977.81716229839 82810.336764705891 208735.91000000003 -3278.4220336197413 -7183.9924544419137 -14139.029527243591 187841.12114197531 -4250.989844446015 65666.280030487804 323864.4375 -16592.779669401545 113064.00795454546 14939.982149621213 -19893.430784875625 -10673.478645833333 -16553.779417613638 6829.1500181686051 -14864.746326376939 -1452.7678802658841 159746.73095238095 27823.859562500002 -19297.49804894728 37079.380230978262 95364.89476744186 -18849.884451403235 -12626.82817080619 10648.713833841464
leaf_weight=5005 57 33 40 94 31 38 29 34 544 20 41 46 30 154 92 27 38 1160 197 38 30 25 32 35 112 156 38 53 108 40 23 25 210 413 35 587 6259 47 29 135 203 63 663 36 448 41 663 545 21 591 904 239 67 2129 32 561 68 836 22 157 4580 530 21 139 262 86 24 120 81 929 850 137 62 34 30 511 439 858 81 57 41 20 518 22 33 20643 45 2310 43 581 181 21 25 13572 46 43 1452 307 123
leaf_count=5005 57 33 40 94 31 38 29 34 544 20 41 46 30 154 92 27 38 1160 197 38 30 25 32 35 112 156 38 53 108 40 23 25 210 413 35 587 6259 47 29 135 203 63 663 36 448 41 663 545 21 591 904 239 67 2129 32 561 68 836 22 157 4580 530 21 139 262 86 24 120 81 929 850 137 62 34 30 511 439 858 81 57 41 20 518 22 33 20643 45 2310 43 581 181 21 25 13572 46 43 1452 307 123
internal_value=0 243351 227282 -13378 967780 340691 58162.8 168210 -17633.1 734030 356164 140110 194098 38705.4 439.469 451333 203661 -18788.6 83088.1 347231 487167 43867.2 226687 88930.5 19843.7 -2629.57 41743.4 169890 37229.2 87472.8 350197 254051 151827 -14999.8 91524.8 33156.9 -19369.9 159259 214217 16199.5 86367 2973.75 153409 49262.2 -5849.56 100568 84458.8 71291.4 311001 1783.45 349273 -11453.2 69576.1 -19699.9 182762 -16026.8 7302.72 199995 131023 48616.2 -18126.3 48134.6 93947.2 21792.6 3068.07 -2744.57 228006 163772 32332.1 -16435.7 -12196.8 11448.5 13400.8 77512.3 203778 -3644.5 -8406.8 -14635.7 186039 -7509.03 63190.1 319827 -17563.1 109078 11689.8 -19963.3 -13966.3 -16819.6 4068.46 -15553.3 -2800.91 155505 24300.9 -19306.1 34959.5 93695.1 -19254.2 -13314.3 9716.08
internal_weight=0 3871 3787 70415 84 1297 3953 2490 66462 53 1142 1194 1296 2220 3994 98 929 62468 1733 1044 57 1743 155 1159 477 3343 1610 367 1006 1124 965 63 962 8310 232 741 54158 201 123 651 1084 1220 894 604 2123 141 866 574 79 1095 942 1866 133 42801 166 6444 238 866 68 265 11357 568 218 299 853 242 53 167 239 4980 1570 352 125 91 70 1140 983 1464 113 296 66 41 5098 63 101 25648 903 3470 137 1510 692 684 164 17153 127 78 15024 720 215
internal_count=74286 3871 3787 70415 84 1297 3953 2490 66462 53 1142 1194 1296 2220 3994 98 929 62468 1733 1044 57 1743 155 1159 477 3343 1610 367 1006 1124 965 63 962 8310 232 741 54158 201 123 651 1084 1220 894 604 2123 141 866 574 79 1095 942 1866 133 42801 166 6444 238 866 68 265 11357 568 218 299 853 242 53 167 239 4980 1570 352 125 91 70 1140 983 1464 113 296 66 41 5098 63 101 25648 903 3470 137 1510 692 684 164 17153 127 78 15024 720 215
is_linear=0
shrinkage=0.1


Tree=3
num_leaves=100
num_cat=0
split_feature=1 1 1 2 0 2 2 2 1 2 1 1 2 1 2 1 1 2 1 1 1 2 1 1 1 2 1 1 1 1 1 1 1 1 1 1 2 1 1 1 2 1 1 2 1 2 1 1 2 1 1 2 1 1 1 1 2 1 1 1 1 1 2 1 1 1 2 1 1 1 1 1 2 2 2 1 1 1 1 1 2 1 1 1 1 1 1 1 1 1 2 1 1 2 1 1 1 1 1
split_gain=1.87167e+16 3.30997e+15 2.72266e+15 1.58879e+15 5.08613e+14 4.11368e+14 3.37931e+14 1.91859e+14 1.13823e+14 9.18658e+13 8.0958e+13 7.9721e+13 3.58104e+13 3.31583e+13 3.14439e+13 2.22554e+13 1.80637e+13 1.66612e+13 1.49155e+13 1.10089e+13 1.086e+13 1.00694e+13 8.36939e+12 8.20856e+12 8.11286e+12 7.28905e+12 6.4685e+12 6.14089e+12 5.19307e+12 4.39245e+12 3.99178e+12 3.80128e+12 3.19595e+12 2.91717e+12 2.45926e+12 2.41028e+12 2.34932e+12 1.85222e+12 1.71316e+12 1.47315e+12 1.26136e+12 1.15419e+12 1.09034e+12 1.05357e+12 9.45543e+11 8.09495e+11 8.07212e+11 8.04099e+11 5.89363e+11 5.69913e+11 5.35506e+11 5.27237e+11 5.25389e+11 4.4091e+11 4.26641e+11 4.11157e+11 3.99776e+11 3.97228e+11 3.394e+11 2.81393e+11 2.78302e+11 2.588e+11 2.01316e+11 1.73634e+11 1.63709e+11 1.61088e+11 1.32711e+11 1.2935e+11 1.25032e+11 1.19555e+11 1.09621e+11 9.83256e+10 7.999e+10 7.86584e+10 7.45362e+10 7.25782e+10 7.21886e+10 5.97284e+10 5.93371e+10 5.514e+10 5.4619e+10 5.25069e+10 5.21914e+10 5.18301e+10 3.72724e+10 3.51128e+10 3.41622e+10 3.386e+10 3.1839e+10 2.99865e+10 2.23322e+10 2.20276e+10 2.02571e+10 2.02225e+10 1.93803e+10 1.76637e+10 1.66075e+10 1.61107e+10 1.43721e+10
threshold=5072.0000000000009 25867.500000000004 1362.5000000000002 60491.000000000007 1.0000000180025095e-35 141488.00000000003 375594.00000000006 16341.500000000002 10300.000000000002 15086.000000000002 8697.0000000000018 7802.0000000000009 40162.500000000007 3037.5000000000005 4607.0000000000009 3770.0000000000005 14578.000000000002 105675.00000000001 2775.0000000000005 6647.0000000000009 7802.0000000000009 51413.000000000007 2198.0000000000005 5607.5000000000009 446.50000000000006 74692.500000000015 3037.5000000000005 479.50000000000006 58.500000000000007 947.50000000000011 5888.5000000000009 4487.5000000000009 2775.0000000000005 159.50000000000003 4425.5000000000009 2299.5000000000005 113400.00000000001 435.50000000000006 11853.500000000002 3527.5000000000005 91877.500000000015 1926.0000000000002 345.50000000000006 18023.500000000004 6162.5000000000009 1194.5000000000002 1165.5000000000002 176.50000000000003 11566.000000000002 4090.0000000000005 789.50000000000011 35951.000000000007 5357.5000000000009 10300.000000000002 5508.0000000000009 1165.5000000000002 882.50000000000011 2685.5000000000005 3244.5000000000005 3619.0000000000005 677.50000000000011 111.50000000000001 1788.5000000000002 1790.5000000000002 1979.5000000000002 239.50000000000003 31061.000000000004 710.00000000000011 337.00000000000006 402.50000000000006 1050.5000000000002 300.50000000000006 5416.0000000000009 10306.500000000002 1380.5000000000002 3619.0000000000005 700.50000000000011 3318.5000000000005 260.50000000000006 134.50000000000003 22495.000000000004 16.500000000000004 858.50000000000011 1228.0000000000002 2685.5000000000005 40.500000000000007 1525.5000000000002 1165.5000000000002 762.50000000000011 651.00000000000011 27684.000000000004 96.500000000000014 1115.5000000000002 105675.00000000001 365.50000000000006 1092.0000000000002 10.500000000000002 1979.5000000000002 33.500000000000007
decision_type=2 2 2 2 2 2 2 2 2 2 2 2 2 2 2 2 2 2 2 2 2 2 2 2 2 2 2 2 2 2 2 2 2 2 2 2 2 2 2 2 2 2 2 2 2 2 2 2 2 2 2 2 2 2 2 2 2 2 2 2 2 2 2 2 2 2 2 2 2 2 2 2 2 2 2 2 2 2 2 2 2 2 2 2 2 2 2 2 2 2 2 2 2 2 2 2 2 2 2
left_child=2 3 7 11 10 9 16 14 20 13 19 30 24 22 28 26 23 18 21 36 -8 41 63 52 42 43 57 33 45 50 -2 -17 84 61 -27 64 93 47 -25 58 -23 -11 71 -20 -32 81 51 56 68 -37 76 66 -6 -13 -38 70 -30 -7 -28 -15 73 91 -47 86 -19 -50 -26 -39 -35 94 -31 78 95 -29 -49 -41 -14 -60 -9 -63 -48 96 -52 -57 -24 -64 -4 -74 -78 -53 -82 -16 -72 -5 -44 -62 -1 -65 -83
right_child=1 -3 5 4 6 15 8 12 -10 17 -12 53 29 59 27 31 -18 35 25 -21 -22 40 32 38 46 34 39 60 37 55 44 -33 -34 48 -36 49 54 67 -40 75 -42 -43 69 -45 -46 62 80 74 65 -51 82 89 -54 -55 -56 83 -58 -59 77 -61 72 79 85 97 -66 -67 -68 -69 -70 -71 92 -73 87 -75 -76 -77 88 -79 -80 -81 90 98 -84 -85 -86 -87 -88 -89 -90 -91 -92 -93 -94 -95 -96 -97 -98 -99 -100
leaf_value=-18566.332570422535 93873.305357142861 1106712.4662790697 7516.9061612215919 146417.94340277778 272438.13255813956 124949.72600000001 381946.33515625005 -7105.3659333881578 643169.81351351354 30833.151070926968 333224.46250000002 165709.86428571431 18434.85353515625 53052.961250000008 -14320.331486451943 207347.29604166668 406838.47625000007 91081.115853658543 83899.056538018442 213227.60593750002 463707.15303030307 64111.772511227551 32922.363919659518 300506.83145161293 9235.84525298265 87089.600431034487 158851.02350000001 -3333.9071144612631 -17089.470895788119 37610.270504807697 132144.40673076923 253759.946 43897.08498021416 -9408.0499404982693 124273.99836956522 112639.75823863636 161912.35096153847 -7427.2710715553976 314777.67063492065 181411.17830882352 77686.556303879319 47673.037416666666 1396.9887336377278 76111.214024827786 139899.81779891305 -17358.138126713238 17623.577485795457 -14137.389537653689 -6846.9496279446093 129739.31178571429 28077.315152616284 16137.693765782831 288815.26666666666 180384.82462121212 176204.05666666667 47701.586875000008 -15464.887427983538 140944.35487804879 166644.73888888891 65130.242984460696 -1653.8559962681361 -12265.947355999044 -16958.349272748554 15343.073033405171 100257.40743243245 -4365.983135727156 12776.947071641158 -1949.0399536132813 -6357.8487084173394 5381.6320189144744 41577.723848684211 -883.55383636845272 3652.408555567542 450.04877587717476 -12705.50098263889 188514.31850000002 21970.65339095745 172370.97533783785 -3004.8400903566921 -10768.300264345367 22107.8125 -17900.674100356609 31561.807122093029 53685.600334821436 37320.305625000001 -16514.32755183028 11480.670730377908 6302.4803740088619 24788.28129464286 19300.912281976747 26072.624404761907 -13386.538937021991 44383.765425531921 149167.17724056606 2939.2478339071331 2086.240924337636 -18131.236134076495 18981.137127976192 -17650.617294777931
leaf_weight=1136 21 43 44 36 43 25 32 38 37 89 32 21 40 20 489 60 20 41 217 40 33 167 536 93 378 29 50 90 1843 65 208 25 537 1011 46 44 39 132 882 34 116 75 151 871 644 11309 22 610 589 35 86 99 36 825 45 30 8505 41 36 547 28 523 2937 29 37 471 147 64 155 190 57 247 172 141 900 25 94 37 495 464 44 21347 86 28 20 4528 43 67 70 43 21 523 47 106 177 23 3863 21 2578
leaf_count=1136 21 43 44 36 43 25 32 38 37 89 32 21 40 20 489 60 20 41 217 40 33 167 536 93 378 29 50 90 1843 65 208 25 537 1011 46 44 39 132 882 34 116 75 151 871 644 11309 22 610 589 35 86 99 36 825 45 30 8505 41 36 547 28 523 2937 29 37 471 147 64 155 190 57 247 172 141 900 25 94 37 495 464 44 21347 86 28 20 4528 43 67 70 43 21 523 47 106 177 23 3863 21 2578
internal_value=0 235201 -10712.3 223464 299641 70548.8 329211 -15428 503156 60617.5 182949 158144 10917 44697.2 -16512.5 176840 312691 76808.2 73775.9 164871 423456 58250.4 35474.4 310904 4621.35 79743.1 161705 -8678.06 -17134.8 32341.1 136945 220998 38394.8 -9941.22 109896 107904 156312 -15280.3 313416 171430 69676 38534.3 -170.98 77664.5 138006 -17603.4 12871.3 -15439.7 -7451.14 120216 25709.6 11689.6 279901 180021 169569 43325.5 -15754.2 134886 165199 64704.2 1565.38 -12714.1 -17092.1 12175 95434 -5744.56 10227.4 -5638.48 -9002.58 3385.54 40832.2 -2532.88 3628.13 -1024.21 -13283.9 184421 22244.2 169547 -3297.19 -11561.9 21931 -17935.3 29819.6 50590.5 33080.6 -16689 9476.04 4395.33 23173.3 17095.6 23388.8 -13837.8 42845.9 148470 2229.25 32.7956 -18230.1 16871.1 -17873.7
internal_weight=0 3236 71050 3193 1474 3897 1176 67153 102 3564 298 1719 2655 1797 64498 333 1074 1767 1610 266 65 447 1230 1054 2052 1163 248 4746 59752 603 873 85 1093 4225 75 157 226 12054 975 182 283 164 1298 1088 852 47698 754 11858 2226 79 376 667 79 846 84 227 10348 66 123 567 521 1999 18774 137 78 1060 525 196 1166 518 169 780 290 231 1510 59 204 73 533 987 87 28924 172 58 556 7465 87 239 164 142 65 1012 104 142 328 51 4999 50 23925
internal_count=74286 3236 71050 3193 1474 3897 1176 67153 102 3564 298 1719 2655 1797 64498 333 1074 1767 1610 266 65 447 1230 1054 2052 1163 248 4746 59752 603 873 85 1093 4225 75 157 226 12054 975 182 283 164 1298 1088 852 47698 754 11858 2226 79 376 667 79 846 84 227 10348 66 123 567 521 1999 18774 137 78 1060 525 196 1166 518 169 780 290 231 1510 59 204 73 533 987 87 28924 172 58 556 7465 87 239 164 142 65 1012 104 142 328 51 4999 50 23925
is_linear=0
shrinkage=0.1


Tree=4
num_leaves=100
num_cat=0
split_feature=6 6 5 6 6 5 5 6 6 0 5 0 5 6 0 6 0 5 5 5 5 0 6 6 5 5 5 5 6 5 6 5 6 5 6 5 0 5 0 6 5 0 2 6 2 5 5 5 5 5 6 5 5 5 5 5 6 5 5 0 5 5 6 5 0 5 5 6 6 6 5 5 0 5 6 6 6 5 5 5 5 5 5 5 0 6 5 6 5 5 5 6 5 6 0 2 6 5 5
split_gain=1.59483e+16 2.98618e+15 1.76638e+15 1.47569e+15 2.20623e+14 1.34465e+14 9.68253e+13 9.5876e+13 9.47748e+13 7.22645e+13 6.96923e+13 3.63662e+13 2.44395e+13 2.20737e+13 1.38318e+13 1.14849e+13 1.10781e+13 1.0878e+13 1.05421e+13 8.99491e+12 8.58829e+12 7.47872e+12 6.02679e+12 5.09679e+12 3.75219e+12 3.65039e+12 2.9747e+12 2.76815e+12 2.74693e+12 2.58135e+12 2.49355e+12 2.47146e+12 2.34609e+12 2.24193e+12 1.9651e+12 1.87024e+12 1.29284e+12 1.22462e+12 1.20929e+12 1.19993e+12 1.17277e+12 1.1372e+12 1.04688e+12 1.00736e+12 7.64788e+11 7.07907e+11 6.92713e+11 6.01546e+11 5.48643e+11 5.33087e+11 4.61589e+11 4.26341e+11 3.40958e+11 3.3902e+11 3.35991e+11 3.21997e+11 3.0617e+11 2.85499e+11 2.69039e+11 2.68505e+11 2.61335e+11 2.4185e+11 2.34409e+11 2.1872e+11 2.11613e+11 2.07366e+11 1.85592e+11 1.83165e+11 1.77882e+11 1.56716e+11 1.56024e+11 1.51021e+11 1.23457e+11 1.18566e+11 1.12928e+11 1.08806e+11 8.45554e+10 8.35281e+10 7.97297e+10 7.5999e+10 7.42373e+10 7.21086e+10 6.4731e+10 6.17526e+10 6.10732e+10 5.92169e+10 5.67752e+10 5.57091e+10 5.36498e+10 5.02712e+10 4.85722e+10 4.68557e+10 4.63972e+10 4.54178e+10 4.47874e+10 4.35942e+10 4.35822e+10 4.17861e+10 3.16666e+10
threshold=3953.5000000000005 25870.500000000004 18309.500000000004 1487.5000000000002 17923.500000000004 71778.000000000015 845.50000000000011 5994.0000000000009 2289.5000000000005 2.5000000000000004 24739.500000000004 2.5000000000000004 51180.000000000007 10125.500000000002 2.5000000000000004 708.50000000000011 2.5000000000000004 13167.000000000002 30707.000000000004 6849.5000000000009 240.50000000000003 2.5000000000000004 4566.0000000000009 2778.0000000000005 2024.5000000000002 6849.5000000000009 19546.500000000004 15848.000000000002 1059.0000000000002 508.50000000000006 4837.0000000000009 5086.5000000000009 21035.500000000004 28352.000000000004 9579.0000000000018 34090.500000000007 2.5000000000000004 8807.5000000000018 2.5000000000000004 6735.0000000000009 1602.5000000000002 2.5000000000000004 24454.500000000004 68.500000000000014 91877.500000000015 3966.0000000000005 4962.0000000000009 1215.5000000000002 8921.0000000000018 12470.000000000002 5408.0000000000009 6467.0000000000009 1352.0000000000002 2740.5000000000005 21667.500000000004 8921.0000000000018 159.50000000000003 3861.0000000000005 14260.000000000002 2.5000000000000004 1924.0000000000002 87.500000000000014 2704.5000000000005 2837.0000000000005 2.5000000000000004 7917.0000000000009 17149.000000000004 9067.5000000000018 473.50000000000006 2025.5000000000002 586.00000000000011 2226.0000000000005 2.5000000000000004 3966.0000000000005 2025.5000000000002 76.500000000000014 92.500000000000014 742.50000000000011 1057.5000000000002 12908.000000000002 3551.0000000000005 11909.000000000002 2125.0000000000005 3034.5000000000005 1.0000000180025095e-35 4531.5000000000009 5303.0000000000009 238.50000000000003 1384.5000000000002 1384.5000000000002 1738.5000000000002 992.00000000000011 2530.0000000000005 35.500000000000007 1.0000000180025095e-35 51122.000000000007 120.50000000000001 426.00000000000006 1183.0000000000002
decision_type=2 2 2 2 2 2 2 2 2 2 2 2 2 2 2 2 2 2 2 2 2 2 2 2 2 2 2 2 2 2 2 2 2 2 2 2 2 2 2 2 2 2 2 2 2 2 2 2 2 2 2 2 2 2 2 2 2 2 2 2 2 2 2 2 2 2 2 2 2 2 2 2 2 2 2 2 2 2 2 2 2 2 2 2 2 2 2 2 2 2 2 2 2 2 2 2 2 2 2
left_child=3 2 7 6 9 -3 20 11 21 13 34 22 32 26 19 36 17 95 33 23 43 24 37 -10 -5 62 -4 58 41 56 55 69 -6 -12 67 -20 40 -2 53 -19 68 52 57 61 -39 80 -44 78 -21 81 -32 -33 98 82 -36 -13 59 -25 -18 75 90 93 86 92 70 -27 -29 -11 94 73 -31 -54 76 -26 -47 -22 -45 -66 -38 -51 -23 -24 -30 -55 -72 -57 -16 97 -49 -70 -43 -62 -40 -1 -8 -9 -61 -58 -17
right_child=1 5 4 8 12 -7 15 16 14 10 18 30 -14 -15 25 28 27 39 35 48 29 45 49 42 31 65 -28 66 38 64 50 51 -34 -35 54 -37 47 44 63 -41 -42 60 46 72 -46 74 -48 88 -50 79 -52 -53 71 83 -56 85 87 -59 -60 96 91 -63 -64 -65 77 -67 -68 -69 89 -71 84 -73 -74 -75 -76 -77 -78 -79 -80 -81 -82 -83 -84 -85 -86 -87 -88 -89 -90 -91 -92 -93 -94 -95 -96 -97 -98 -99 -100
leaf_value=-16387.976413317938 118681.0342559524 778464.76666666672 282461.45353855006 29763.351682231805 386021.136 1101033.6857142856 -3770.1648128535835 157930.31521739133 58504.162588967978 162901.26975000001 241242.53412698416 62937.903940217395 527608.34615384624 380766.15416666667 31558.115513392859 2215.4222583912037 113844.47740384616 192633.68620689656 288970.91810344829 96654.690625000003 -11566.596364737086 15905.911368535306 141601.34044117649 75212.172624999992 38623.449518250411 52765.022169811331 312614.33308823529 142965.9235 13871.461649816178 -9204.1116123826287 88383.068518518528 54388.727989130435 430278.1413043479 266911.02500000002 185191.04507575757 325545.80648148153 -7615.754709241829 125749.80938922609 6450.8368722098221 221402.10905172417 22158.249544270835 -1226.4329402449325 63537.952784653462 -14915.92672108576 133516.65828025478 22654.304532967035 70225.837669427725 -4290.73738611516 115513.17870370371 154970.84076086956 101717.95925000001 74097.104464285716 9644.0262330163041 23567.62517857143 201619.78687499999 73902.243750000009 -12770.947464771714 87469.871130952379 126849.91737804879 -14363.254891784452 2712.0544801556898 -15619.644043964487 42202.777247191014 13078.752286585368 -10797.389468836685 60357.791127232151 151156.45000000001 172592.66093750001 286.93879405150921 46322.7105342742 -7386.6708646537172 17422.502678571429 -15078.70372039135 43147.189208984375 27131.214875422298 -13210.253436902105 -13831.923851435353 -9013.7959008020589 -5789.949282340116 163105.27608695652 19446.655772210746 149058.72857142857 18755.775929418105 30534.132734375002 -4497.1822346332647 78931.332738095254 36637.355764563108 -10198.434468176607 -2736.0147066586351 3505.9594180349577 988.4962276463217 5028.4890598958336 9051.7265580861585 -16074.395344056669 1277.7452423095704 162350.2375617284 -13704.495607510116 -11809.800323101779 5503.7225067138679
leaf_weight=5792 210 24 869 522 25 28 145 23 562 50 63 23 26 24 28 54 26 29 29 36 542 116 34 200 613 53 34 50 51 426 54 23 23 74 33 27 539 659 112 29 24 185 202 1271 157 91 664 343 27 23 50 21 230 35 20 53 1681 21 41 3113 209 13142 89 123 721 112 62 32 273 31 185 28 6797 64 148 1568 1659 413 430 23 121 21 58 20 121 42 103 109 629 59 213 150 177 22826 20 810 1483 619 64
leaf_count=5792 210 24 869 522 25 28 145 23 562 50 63 23 26 24 28 54 26 29 29 36 542 116 34 200 613 53 34 50 51 426 54 23 23 74 33 27 539 659 112 29 24 185 202 1271 157 91 664 343 27 23 50 21 230 35 20 53 1681 21 41 3113 209 13142 89 123 721 112 62 32 273 31 185 28 6797 64 148 1568 1659 413 430 23 121 21 58 20 121 42 103 109 629 59 213 150 177 22826 20 810 1483 619 64
internal_value=0 199556 189114 -10758.3 281732 952156 -14234.8 138229 49462.9 271839 231498 120499 449524 286112 63801.5 516.758 160583 165144 270050 67652.9 -15219.8 32281.2 127786 66236.1 36277.1 46675.2 283597 137882 6814.97 -12680.9 83505 40798.7 407228 255107 176383 306605 -3855.15 125491 12437.8 207018 567.89 3956.39 70233.6 -15761.3 127244 21586.3 68665.8 -5042.38 104737 151093 94794.1 63795.1 8451.69 19700.2 191391 73555.2 -13374.6 76376.9 121803 -13721.9 1723.59 -15974.8 38242.4 9546.95 -9292.21 57918.9 147500 166683 -474.696 39369.5 -7966.74 10488.2 -14844.8 39051.1 25426.6 -12788 -14302.2 -10147.8 -6805.54 159038 17713.6 144449 16470.5 26101 -6244.11 76125.7 35551.7 -12407.6 -3284.65 859.003 -41.0487 3679.93 8043.78 -16137.9 -3158.28 162228 -14150.7 -12512.3 3998.93
internal_weight=0 3800 3748 70486 1329 52 66639 2419 3847 1255 328 1349 74 927 2097 4171 1070 891 193 1712 62468 1750 1127 1649 1274 385 903 179 1709 10981 222 752 48 137 135 56 2462 1026 576 58 521 1133 1087 51487 816 476 866 1941 63 101 104 44 376 164 53 118 9115 221 67 6706 757 41760 220 412 1866 165 112 82 497 708 732 258 9727 677 239 2110 2930 1134 969 46 237 55 109 55 306 95 131 2409 972 332 398 359 289 28618 165 833 4596 2300 118
internal_count=74286 3800 3748 70486 1329 52 66639 2419 3847 1255 328 1349 74 927 2097 4171 1070 891 193 1712 62468 1750 1127 1649 1274 385 903 179 1709 10981 222 752 48 137 135 56 2462 1026 576 58 521 1133 1087 51487 816 476 866 1941 63 101 104 44 376 164 53 118 9115 221 67 6706 757 41760 220 412 1866 165 112 82 497 708 732 258 9727 677 239 2110 2930 1134 969 46 237 55 109 55 306 95 131 2409 972 332 398 359 289 28618 165 833 4596 2300 118
is_linear=0
shrinkage=0.1


Tree=5
num_leaves=100
num_cat=0
split_feature=5 5 5 3 1 1 1 3 5 3 1 1 1 1 5 5 5 1 3 5 1 5 1 0 1 1 5 5 3 5 1 5 5 1 5 5 5 1 5 5 1 1 5 1 1 5 1 0 1 1 3 3 1 1 3 1 5 5 1 5 1 1 3 3 3 1 5 1 3 3 5 1 5 5 3 5 3 3 5 1 5 5 1 5 1 5 1 3 1 1 5 1 3 1 1 1 3 5 1
split_gain=1.28565e+16 2.40792e+15 1.34907e+15 1.13861e+15 4.75915e+14 1.21947e+14 1.02001e+14 9.57937e+13 7.37844e+13 5.14879e+13 5.09285e+13 3.58169e+13 1.58608e+13 1.14742e+13 1.02511e+13 9.94499e+12 8.62311e+12 8.18567e+12 7.38932e+12 6.40226e+12 5.4913e+12 4.9738e+12 4.46573e+12 3.98419e+12 3.92939e+12 3.18063e+12 2.71765e+12 2.23449e+12 2.02657e+12 1.96618e+12 1.67949e+12 1.60519e+12 1.60329e+12 1.58269e+12 1.5749e+12 1.22436e+12 1.16896e+12 9.40292e+11 9.14384e+11 9.11562e+11 8.2413e+11 6.33027e+11 6.27373e+11 5.55101e+11 5.15287e+11 5.03415e+11 4.22018e+11 3.91202e+11 3.81197e+11 3.5892e+11 3.55264e+11 3.21702e+11 2.95596e+11 2.44108e+11 2.39543e+11 2.3125e+11 2.05359e+11 2.0302e+11 2.01981e+11 1.94952e+11 1.9217e+11 1.91351e+11 1.86806e+11 1.49835e+11 1.37121e+11 1.22924e+11 1.14854e+11 1.03067e+11 9.99561e+10 9.31603e+10 8.97454e+10 8.84892e+10 8.03572e+10 7.57189e+10 7.43021e+10 7.06567e+10 6.55336e+10 6.39118e+10 6.09131e+10 5.23694e+10 4.43461e+10 4.0927e+10 3.67463e+10 3.29076e+10 3.20949e+10 2.9889e+10 2.85906e+10 2.79814e+10 2.65329e+10 2.47596e+10 2.36118e+10 2.34732e+10 2.19996e+10 2.09582e+10 1.98763e+10 1.98196e+10 1.88005e+10 1.70563e+10 1.705e+10
threshold=8133.5000000000009 48180.000000000007 18309.500000000004 2963.0000000000005 31292.500000000004 4935.0000000000009 2914.5000000000005 11435.000000000002 845.50000000000011 26701.000000000004 13206.000000000002 2299.5000000000005 5766.0000000000009 973.00000000000011 2411.0000000000005 26397.500000000004 15091.500000000002 5607.5000000000009 249.00000000000003 3542.0000000000005 8119.0000000000009 3966.0000000000005 5735.0000000000009 2.5000000000000004 2775.0000000000005 337.00000000000006 11443.000000000002 21112.000000000004 23849.000000000004 6849.5000000000009 2424.5000000000005 9426.5000000000018 6467.0000000000009 1451.5000000000002 508.50000000000006 10567.000000000002 165.50000000000003 592.50000000000011 4568.5000000000009 13167.000000000002 1398.5000000000002 6162.5000000000009 1215.5000000000002 5189.0000000000009 2299.5000000000005 4962.0000000000009 1926.0000000000002 1.0000000180025095e-35 3619.0000000000005 4090.0000000000005 14395.000000000002 5704.5000000000009 337.00000000000006 5766.0000000000009 64.500000000000014 4802.0000000000009 2275.0000000000005 15091.500000000002 3244.5000000000005 1684.5000000000002 176.50000000000003 10300.000000000002 4222.5000000000009 172.00000000000003 1554.0000000000002 669.00000000000011 1097.0000000000002 858.50000000000011 544.50000000000011 2001.5000000000002 349.50000000000006 1662.5000000000002 9547.5000000000018 3551.0000000000005 1063.0000000000002 8537.5000000000018 21055.000000000004 772.00000000000011 290.50000000000006 5123.5000000000009 12470.000000000002 2024.5000000000002 151.50000000000003 256.50000000000006 14.500000000000002 11208.500000000002 858.50000000000011 13951.000000000002 337.00000000000006 867.50000000000011 1384.5000000000002 1335.0000000000002 354.50000000000006 2357.5000000000005 1790.5000000000002 743.50000000000011 3123.5000000000005 669.00000000000011 558.00000000000011
decision_type=2 2 2 2 2 2 2 2 2 2 2 2 2 2 2 2 2 2 2 2 2 2 2 2 2 2 2 2 2 2 2 2 2 2 2 2 2 2 2 2 2 2 2 2 2 2 2 2 2 2 2 2 2 2 2 2 2 2 2 2 2 2 2 2 2 2 2 2 2 2 2 2 2 2 2 2 2 2 2 2 2 2 2 2 2 2 2 2 2 2 2 2 2 2 2 2 2 2 2
left_child=3 2 7 8 10 27 13 11 18 17 -3 31 26 23 25 -11 39 43 36 48 -17 24 29 59 33 42 35 50 53 38 93 75 44 56 60 72 54 69 55 61 47 57 77 -7 62 -40 94 66 -8 -29 87 91 68 -19 84 -21 -15 -32 -28 89 70 -14 -23 -38 -49 -39 -27 96 97 -16 83 -42 -9 -35 90 -2 -45 -10 88 -37 -60 -61 -65 -20 -1 -48 -54 -4 -62 -5 -44 -34 -72 -13 -33 -67 -25 -36 -71
right_child=1 4 5 6 -6 9 19 12 14 15 -12 30 16 21 37 20 -18 28 34 22 -22 32 -24 67 -26 40 58 49 -30 -31 41 46 51 73 52 79 63 65 45 -41 71 -43 74 76 -46 -47 85 64 -50 -51 -52 -53 86 -55 -56 -57 -58 -59 80 81 78 -63 -64 82 -66 95 -68 -69 -70 98 92 -73 -74 -75 -76 -77 -78 -79 -80 -81 -82 -83 -84 -85 -86 -87 -88 -89 -90 -91 -92 -93 -94 -95 -96 -97 -98 -99 -100
leaf_value=-15009.884349541751 54398.37708333334 448639.96212121216 145157.73303571431 2278.7823828125001 1018224.6532258065 216355.05833333335 40758.650538793103 96414.650000000009 -6859.132024629238 290075.84000000003 650871.02750000008 90074.374000000011 139152.96371951219 11293.136046645221 7000.8448800872102 321919.88611111115 193807.9765625 246829.90394736841 -12631.286748342804 67690.953874999992 383607.40483870968 32442.444704861115 101682.82656250001 20607.400970643939 35598.638310731134 -3608.7976148986818 128208.57688679246 170667.65476190476 284728.92608695658 85573.099687499998 106752.36907630524 66899.290357142861 43120.305125000006 26441.098518585259 -10138.195679479419 116605.85477941176 -13549.756516616073 13690.975630787039 57175.193380541867 165994.11195652175 7208.0761408730168 113314.96581849846 -3861.6637903152332 228268.70000000001 48077.321957236847 62866.776470588244 78078.439634146343 1258.7057178479695 52525.249363532115 189159.03273809527 159662.21781250002 55373.892117537318 -5458.714694107588 255014.11048119469 -14073.882310947794 78722.88363095239 18628.441891163795 116992.63095238095 132537.61601562501 7224.6759420955896 -11422.153375196234 146153.8824090909 37952.772530594404 -12909.76190075737 3907.9650705401818 17151.308712499998 269.99093032209839 26033.590795173266 -8143.0506878675478 9292.7914383561638 -11616.521050861142 12529.753276209678 105084.89483695652 31672.080280172413 -1551.8755824964874 60159.731617647063 235672.91413043477 -5232.3351500775962 -9415.3489645933496 121039.03850806452 136938.57854938271 11474.185845588236 -12021.062871018341 -11996.898693677327 -14529.023833828855 82651.111931818188 -2195.8458417338711 149525.77338709679 -10456.771856796118 5940.5168501420458 -2739.6897866659119 47010.301524390248 -10831.887435456112 94365.266666666663 70112.186773255817 19734.155208333337 22952.682108274646 -9153.8701827157984 11529.196594238281
leaf_weight=1473 57 33 28 115 31 45 29 20 531 40 20 25 41 68 215 27 40 38 1320 200 31 108 32 66 530 160 53 21 23 40 249 35 25 607 413 34 6259 135 203 23 63 646 343 25 38 663 41 433 545 21 40 67 201 904 17153 21 87 21 32 68 637 825 143 4580 356 125 146 101 914 73 929 62 23 29 392 34 23 443 312 124 81 34 518 2150 24175 22 31 31 515 22 414 41 581 21 43 39 71 307 64
leaf_count=1473 57 33 28 115 31 45 29 20 531 40 20 25 41 68 215 27 40 38 1320 200 31 108 32 66 530 160 53 21 23 40 249 35 25 607 413 34 6259 135 203 23 63 646 343 25 38 663 41 433 545 21 40 67 201 904 17153 21 87 21 32 68 637 825 143 4580 356 125 146 101 914 73 929 62 23 29 392 34 23 443 312 124 81 34 518 2150 24175 22 31 31 515 22 414 41 581 21 43 39 71 307 64
internal_value=0 177431 165685 -9754.11 706994 248384 42386.7 122608 -12855.3 259093 524954 102174 141435 28194.1 321.793 328436 148388 252669 -13697.8 60567.6 354891 31955 64845 14451.3 28935.8 -1913.86 123834 160586 255400 63799.1 110679 66905.1 41406.3 24471.4 -10921.3 116013 -14123.9 11802.3 62997.8 146344 2155.11 111615 -4252.12 224335 37224.8 61532.6 73587.6 1276.96 51930.8 179913 152386 50492.4 -8362.99 254684 -14363.2 68739.3 15410.4 107549 133303 5331.22 -11662.1 145822 35581.8 -13221.9 2454.07 15925.9 -1758.12 23609.8 -8837.25 8299.52 -11958.2 9847.65 101052 26679.6 -2669.39 56551 231817 -6119.23 -10654.9 120085 135692 8641.21 -12819.5 -12238.2 -14556.6 79675.3 -5022.74 147453 -10990.6 2866.82 -3248.07 45536.9 -11314.6 92033.3 68670.5 17765.5 21822.9 -9718.49 10337.6
internal_weight=0 3871 3787 70415 84 1297 3953 2490 66462 1156 53 1194 1296 2220 3994 98 929 1058 62468 1733 58 1743 1159 477 1321 3343 367 141 965 1127 962 232 422 791 8310 201 54158 651 1087 889 1220 916 2123 93 289 866 141 1095 574 42 99 133 1866 942 42801 221 155 270 166 239 6444 866 251 11357 789 299 306 238 1634 352 4980 125 43 636 1149 91 48 974 1464 158 113 102 5098 3470 25648 63 232 59 1152 137 757 66 1510 46 78 164 137 720 137
internal_count=74286 3871 3787 70415 84 1297 3953 2490 66462 1156 53 1194 1296 2220 3994 98 929 1058 62468 1733 58 1743 1159 477 1321 3343 367 141 965 1127 962 232 422 791 8310 201 54158 651 1087 889 1220 916 2123 93 289 866 141 1095 574 42 99 133 1866 942 42801 221 155 270 166 239 6444 866 251 11357 789 299 306 238 1634 352 4980 125 43 636 1149 91 48 974 1464 158 113 102 5098 3470 25648 63 232 59 1152 137 757 66 1510 46 78 164 137 720 137
is_linear=0
shrinkage=0.1


Tree=6
num_leaves=100
num_cat=0
split_feature=6 6 6 6 4 6 4 4 4 6 4 4 6 4 2 4 4 6 2 4 2 6 2 6 6 4 4 6 6 6 6 2 4 6 2 6 6 2 4 4 6 6 6 6 4 4 4 4 4 4 4 4 4 2 2 2 6 4 4 6 6 4 6 6 4 4 6 4 4 2 4 4 4 4 4 2 0 2 4 2 4 4 6 4 4 6 6 4 4 6 4 6 4 4 4 4 6 4 4
split_gain=1.04652e+16 1.95835e+15 1.13589e+15 9.68047e+14 1.71495e+14 1.44228e+14 8.47049e+13 7.5804e+13 6.72357e+13 6.33779e+13 2.59887e+13 2.16177e+13 1.58439e+13 1.55968e+13 7.14177e+12 6.88685e+12 6.87215e+12 6.44084e+12 5.4262e+12 4.90713e+12 4.77702e+12 3.79994e+12 3.59095e+12 2.91163e+12 1.92599e+12 1.87062e+12 1.6593e+12 1.6379e+12 1.52685e+12 1.27236e+12 1.2587e+12 1.17189e+12 1.0683e+12 1.05226e+12 6.72042e+11 5.44383e+11 5.15727e+11 4.98031e+11 4.49619e+11 4.33757e+11 4.29788e+11 4.25274e+11 4.07101e+11 3.86736e+11 3.82836e+11 3.77118e+11 3.17163e+11 3.04645e+11 3.00364e+11 2.95943e+11 2.82e+11 2.45413e+11 2.18461e+11 2.16284e+11 2.08111e+11 2.07331e+11 1.91046e+11 1.89724e+11 1.6749e+11 1.43015e+11 1.14736e+11 1.1133e+11 9.15855e+10 9.04962e+10 9.04177e+10 8.00597e+10 7.42746e+10 7.29163e+10 6.84513e+10 6.21861e+10 6.07619e+10 5.39621e+10 5.37006e+10 4.9649e+10 3.95731e+10 3.93694e+10 3.85856e+10 3.73738e+10 3.71461e+10 3.28438e+10 3.24504e+10 3.12359e+10 2.56928e+10 2.51312e+10 2.27776e+10 2.20212e+10 1.85625e+10 1.82057e+10 1.73655e+10 1.63224e+10 1.6084e+10 1.55606e+10 1.41115e+10 1.39273e+10 1.03237e+10 9.90516e+09 9.68746e+09 9.66979e+09 9.65212e+09
threshold=3953.5000000000005 25870.500000000004 8695.0000000000018 1487.5000000000002 34792.000000000007 17923.500000000004 4935.0000000000009 6647.0000000000009 2914.5000000000005 434.00000000000006 2424.5000000000005 10597.500000000002 22422.000000000004 15477.500000000002 74692.500000000015 365.50000000000006 5607.5000000000009 120.50000000000001 74692.500000000015 897.50000000000011 105675.00000000001 2347.5000000000005 113400.00000000001 15849.500000000002 1501.5000000000002 1228.0000000000002 2914.5000000000005 4837.0000000000009 238.50000000000003 4566.0000000000009 9579.0000000000018 27684.000000000004 66.500000000000014 701.50000000000011 22495.000000000004 4152.5000000000009 614.50000000000011 9397.0000000000018 5189.0000000000009 459.50000000000006 50.500000000000007 3303.0000000000005 10125.500000000002 3427.5000000000005 7408.0000000000009 762.50000000000011 3318.5000000000005 2198.0000000000005 326.50000000000006 1050.5000000000002 179.50000000000003 10300.000000000002 402.50000000000006 38060.500000000007 40162.500000000007 15086.000000000002 4395.5000000000009 4802.0000000000009 1451.5000000000002 756.00000000000011 82.500000000000014 144.50000000000003 159.50000000000003 9067.5000000000018 2685.5000000000005 1572.5000000000002 82.500000000000014 4487.5000000000009 669.00000000000011 91877.500000000015 677.50000000000011 828.00000000000011 222.50000000000003 700.50000000000011 402.50000000000006 8690.0000000000018 1.0000000180025095e-35 5617.5000000000009 21.500000000000004 22495.000000000004 973.00000000000011 1572.5000000000002 4531.5000000000009 126.50000000000001 2357.5000000000005 347.50000000000006 68.500000000000014 677.50000000000011 278.00000000000006 379.50000000000006 129.50000000000003 24.500000000000004 48.500000000000007 159.50000000000003 634.50000000000011 291.50000000000006 850.00000000000011 2072.0000000000005 858.50000000000011
decision_type=2 2 2 2 2 2 2 2 2 2 2 2 2 2 2 2 2 2 2 2 2 2 2 2 2 2 2 2 2 2 2 2 2 2 2 2 2 2 2 2 2 2 2 2 2 2 2 2 2 2 2 2 2 2 2 2 2 2 2 2 2 2 2 2 2 2 2 2 2 2 2 2 2 2 2 2 2 2 2 2 2 2 2 2 2 2 2 2 2 2 2 2 2 2 2 2 2 2 2
left_child=3 2 7 9 -3 6 30 10 14 17 27 22 -7 16 19 36 38 32 21 45 35 46 51 -18 -21 33 64 56 52 -28 63 37 40 68 57 -12 72 65 -8 74 78 -20 -32 67 -24 73 -10 97 61 80 66 -9 62 -51 -45 -41 -2 -23 -16 88 86 90 93 -4 -22 -27 -34 -36 75 -37 85 -47 -11 94 -35 -17 -64 -70 91 -39 -26 -60 -58 -68 -49 -50 -42 -54 -38 -63 -30 -1 -80 -19 -5 -52 -61 -29 -73
right_child=1 4 5 8 -6 12 13 11 18 15 20 -13 -14 -15 58 25 23 28 41 24 26 34 44 -25 49 31 29 47 48 -31 42 -33 50 39 43 69 59 79 -40 55 60 -43 -44 54 -46 71 -48 84 70 53 95 -53 87 -55 -56 -57 82 -59 81 96 -62 89 76 -65 -66 -67 83 -69 77 -71 -72 98 -74 -75 -76 -77 -78 -79 92 -81 -82 -83 -84 -85 -86 -87 -88 -89 -90 -91 -92 -93 -94 -95 -96 -97 -98 -99 -100
leaf_value=-13542.872004330526 53382.541785714289 574965.63124999998 132473.78589743591 11522.477225378789 939252.00892857148 323803.00773809524 194719.55833333335 121478.55800000002 36682.785668103454 -5357.7030063191651 96308.654410046729 217656.66129032258 417203.80546875001 314901.72440476192 42224.045277777783 -3782.4512501220706 229427.66750784521 -11060.356238973473 75435.542307692318 24158.122433675908 92506.569886363635 60860.439769900499 150804.20869565217 262727.65370370372 24499.449898097828 4894.9352844238283 108600.4393 70555.831433823536 -9191.9120304987991 121354.88002392346 149159.79439102564 29849.036160714284 -12318.641495287528 2123.4048265923393 57659.232738095248 101845.07864741642 -2529.8696169567511 13683.868483382939 208634.953125 2820.005113728841 -12654.459408748304 91426.801939655183 166174.41278409094 56555.138435039371 169052.07608695654 18330.903519917581 47413.770685336982 80599.596120689661 -5617.0374058314737 31276.105821078436 -10456.801206597222 131537.1781856796 -6185.5924843749999 34767.023200000003 66916.15625 8159.9768823535524 60410.517225609758 70850.590773809527 48065.935056089744 -128.27286862709539 -12017.760371591166 -7491.3000659145928 -8819.247310965402 139652.26250000001 100949.5675 9575.7561970338993 -11650.105063421426 51466.640284653469 -475.00926930874215 105956.87596153846 468.47783999235736 20734.751153846155 -3868.2955727787339 15964.135170990567 4124.8268791024548 -600.66605524553574 -10197.486447780735 2307.925453407534 -13016.735523403579 16997.238363486842 28198.590720663269 51269.291562500002 63932.140922619059 -11141.385521989085 84928.735416666663 -3864.0710121093748 -12379.459715757979 -2531.4621354166666 -1586.7464023084526 -6710.2900716911772 -8236.6360728145428 -13176.985547091461 -12724.073809931508 -10606.289977571771 13568.205301339287 -9324.8108380681824 1040.0597447467674 73333.070625000008 22535.921619318182
leaf_weight=1335 35 24 39 33 28 42 45 25 29 497 214 31 32 21 45 50 956 1913 39 523 22 201 23 27 46 96 125 34 416 209 39 35 1439 180 21 658 474 63 48 84 11783 29 22 635 23 91 549 29 168 612 90 824 25 250 20 541 41 21 78 139 4437 723 224 32 30 59 3188 202 79 39 23 65 472 106 219 175 2184 124 17042 57 49 50 42 1397 21 125 3102 30 332 425 306 9023 1825 1045 98 550 145 20 55
leaf_count=1335 35 24 39 33 28 42 45 25 29 497 214 31 32 21 45 50 956 1913 39 523 22 201 23 27 46 96 125 34 416 209 39 35 1439 180 21 658 474 63 48 84 11783 29 22 635 23 91 549 29 168 612 90 824 25 250 20 541 41 21 78 139 4437 723 224 32 30 59 3188 202 79 39 23 65 472 106 219 175 2184 124 17042 57 49 50 42 1397 21 125 3102 30 332 425 306 9023 1825 1045 98 550 145 20 55
internal_value=0 161652 153196 -8714.87 771120 228607 220443 113007 40060.4 -11530.6 99259.5 135559 364193 229550 28008.7 973.655 227884 -12291.2 54562.5 26262.3 104671 53440.2 132715 230342 29037.9 5562.96 113994 67643.4 -9563.26 116582 144761 12614.6 -12667.1 4057.44 56889.8 100721 -2953.67 10421.2 201902 5797.84 -12830 82255.4 155296 55646.9 159928 17092.6 46875.4 76792.9 -7332.22 31704.8 -11479.8 131241 -10462.9 32288.6 56871.5 7442.29 59579.5 61805.5 47472.2 -1461.45 -12464.1 -7814.08 -10527.2 135709 97377.6 6676.69 -11691.8 52049.8 -106.507 102075 -4480.68 20167.5 -4632.22 14355 3221.94 -1307.74 -10069.3 1224.9 -13072 15257.7 26407.5 49317.3 62192.6 -11495.1 82417.9 -4869.2 -12597.2 -4192.49 -2141.39 -7202.17 -8787.05 -13224.1 -12988.4 -10899.9 13052.9 -9484 468.224 71584.5 21560.3
internal_weight=0 3800 3748 70486 52 1303 1229 2445 3847 66639 1519 926 74 1097 2101 3821 1076 62818 1746 1928 1297 1678 895 983 1480 1762 386 222 7607 334 132 310 55211 1452 1100 911 2059 275 93 1024 48547 68 61 878 46 448 578 104 2186 957 6664 849 5421 862 655 625 118 222 173 1090 19322 1870 5366 71 52 155 6024 223 428 697 316 211 969 237 399 225 2408 203 29225 120 95 128 83 4585 50 293 14885 55 806 1148 722 10358 18867 2958 131 640 284 54 120
internal_count=74286 3800 3748 70486 52 1303 1229 2445 3847 66639 1519 926 74 1097 2101 3821 1076 62818 1746 1928 1297 1678 895 983 1480 1762 386 222 7607 334 132 310 55211 1452 1100 911 2059 275 93 1024 48547 68 61 878 46 448 578 104 2186 957 6664 849 5421 862 655 625 118 222 173 1090 19322 1870 5366 71 52 155 6024 223 428 697 316 211 969 237 399 225 2408 203 29225 120 95 128 83 4585 50 293 14885 55 806 1148 722 10358 18867 2958 131 640 284 54 120
is_linear=0
shrinkage=0.1


Tree=7
num_leaves=100
num_cat=0
split_feature=6 6 5 6 1 6 1 1 1 5 1 5 1 1 5 1 5 5 5 1 5 5 6 5 6 5 5 1 5 6 1 5 1 6 5 6 1 5 5 5 1 6 1 1 1 1 6 5 1 5 5 1 5 1 1 5 6 5 1 1 1 1 1 1 6 5 1 5 5 1 1 1 1 5 1 5 1 5 5 1 6 5 1 1 5 1 1 5 5 1 1 5 6 6 5 1 1 6 1
split_gain=8.47681e+15 1.58626e+15 9.406e+14 7.84118e+14 1.38911e+14 1.17231e+14 7.34474e+13 5.45591e+13 5.44609e+13 5.14671e+13 2.06908e+13 1.39217e+13 1.37611e+13 6.35101e+12 5.80139e+12 5.68138e+12 5.2791e+12 4.97375e+12 4.58672e+12 3.90374e+12 3.65389e+12 3.1705e+12 2.3306e+12 2.10901e+12 1.52458e+12 1.51619e+12 1.37141e+12 1.33322e+12 1.33267e+12 1.20583e+12 1.13141e+12 9.54119e+11 7.86945e+11 7.80104e+11 5.5428e+11 5.32853e+11 5.02461e+11 4.6606e+11 4.40777e+11 3.74898e+11 3.64181e+11 3.53796e+11 3.21331e+11 3.05465e+11 2.90266e+11 2.80115e+11 2.78032e+11 2.6898e+11 2.61147e+11 4.66209e+11 2.33275e+11 2.26225e+11 1.99925e+11 1.99038e+11 1.92536e+11 1.70434e+11 1.63922e+11 1.54734e+11 1.51508e+11 1.46584e+11 1.39369e+11 1.17679e+11 1.17338e+11 7.64238e+10 6.0857e+10 5.64926e+10 5.51014e+10 4.87785e+10 4.39833e+10 4.20723e+10 4.11518e+10 3.98696e+10 3.32883e+10 3.05447e+10 2.89832e+10 2.60002e+10 2.48895e+10 2.47652e+10 2.42143e+10 2.30657e+10 2.21133e+10 1.84781e+10 1.84455e+10 1.84322e+10 1.7855e+10 1.68592e+10 1.61822e+10 1.4452e+10 1.27101e+10 1.24954e+10 1.20303e+10 1.17008e+10 1.09628e+10 1.07936e+10 9.59954e+09 8.71557e+09 8.1463e+09 7.73251e+09 7.48783e+09
threshold=3953.5000000000005 25870.500000000004 18309.500000000004 1487.5000000000002 34792.000000000007 17923.500000000004 4935.0000000000009 6339.5000000000009 2914.5000000000005 845.50000000000011 2424.5000000000005 51180.000000000007 15477.500000000002 345.50000000000006 6467.0000000000009 5607.5000000000009 13167.000000000002 7332.0000000000009 240.50000000000003 897.50000000000011 11208.500000000002 3542.0000000000005 15606.500000000002 2634.5000000000005 9946.5000000000018 2024.5000000000002 508.50000000000006 3037.5000000000005 9809.0000000000018 21035.500000000004 1600.0000000000002 11443.000000000002 7802.0000000000009 661.50000000000011 4568.5000000000009 68.500000000000014 841.50000000000011 1302.0000000000002 8807.5000000000018 4962.0000000000009 5189.0000000000009 9191.5000000000018 858.50000000000011 762.50000000000011 78.000000000000014 2198.0000000000005 2289.5000000000005 8921.0000000000018 2072.0000000000005 4448.5000000000009 1602.5000000000002 10300.000000000002 5686.5000000000009 1451.5000000000002 307.50000000000006 8921.0000000000018 992.00000000000011 5965.0000000000009 4802.0000000000009 558.00000000000011 27.500000000000004 2842.5000000000005 131.50000000000003 252.50000000000003 701.50000000000011 1057.5000000000002 144.50000000000003 426.00000000000006 4247.5000000000009 1572.5000000000002 669.00000000000011 558.00000000000011 5072.0000000000009 19122.000000000004 1525.5000000000002 398.50000000000006 789.50000000000011 1384.5000000000002 55.500000000000007 3896.0000000000005 143.50000000000003 73.500000000000014 2357.5000000000005 1335.0000000000002 172.50000000000003 307.50000000000006 1790.5000000000002 979.00000000000011 2837.0000000000005 1979.5000000000002 180.50000000000003 85.500000000000014 310.50000000000006 614.50000000000011 1118.0000000000002 858.50000000000011 63.500000000000007 228.50000000000003 383.50000000000006
decision_type=2 2 2 2 2 2 2 2 2 2 2 2 2 2 2 2 2 2 2 2 2 2 2 2 2 2 2 2 2 2 2 2 2 2 2 2 2 2 2 2 2 2 2 2 2 2 2 2 2 2 2 2 2 2 2 2 2 2 2 2 2 2 2 2 2 2 2 2 2 2 2 2 2 2 2 2 2 2 2 2 2 2 2 2 2 2 2 2 2 2 2 2 2 2 2 2 2 2 2
left_child=3 2 7 9 -3 6 24 10 14 18 28 29 15 37 19 40 51 21 35 43 38 46 -17 33 41 -21 44 61 55 -7 42 -29 -18 59 58 60 56 65 -12 -36 -8 73 71 70 80 89 -10 -19 52 -50 -38 -9 -27 83 66 -2 -35 -41 -23 87 78 -22 84 67 93 90 92 -46 -45 74 -5 -25 -40 -4 -55 -65 98 -61 -1 -43 -20 -62 -47 -16 -37 -66 -57 -15 -44 -30 -11 -80 -28 -39 -67 -70 -83 -68 -56
right_child=1 4 5 8 -6 11 12 16 17 13 20 -13 -14 23 53 22 32 47 26 25 27 34 -24 30 -26 48 54 31 45 -31 -32 -33 -34 36 39 62 50 64 72 57 -42 79 88 68 63 82 -48 -49 49 -51 -52 -53 -54 69 76 86 -58 -59 -60 77 81 -63 -64 75 85 94 97 -69 95 -71 -72 -73 -74 -75 -76 -77 -78 -79 91 -81 -82 96 -84 -85 -86 -87 -88 -89 -90 -91 -92 -93 -94 -95 -96 -97 -98 -99 -100
leaf_value=-12169.796116509659 45465.645855978262 517469.078125 118281.99687500001 11349.991932397959 845326.81428571441 280646.84700000001 175247.60277777779 109018.8548611111 32675.805989583332 -6033.379239169034 86522.404345238101 386707.5 289058.48125000001 -3580.4578539299241 35033.292625000002 206702.75792996911 137308.74475806451 71136.683392857143 -10464.044328275724 21729.696695402301 85663.211057692315 54835.816281250009 235003.13583333336 7275.0035188533066 149443.69414062501 23745.219048713236 -8198.3953010110308 98053.961250000008 62522.439062500001 312376.25 34408.323511904768 109467.52702792553 160029.37208333335 1476.3763809885636 46313.005511083749 -11137.861091912795 4491.9618685052337 -3140.2451479219544 88819.949831081089 50846.68645993837 187771.45963541669 129301.95357142857 15127.095738636366 16392.728511029414 -9522.4173616763564 72539.633620689667 42565.050091911769 84422.16805555555 28871.850178135181 40014.107578125004 9102.5016340886468 118322.76606925883 29116.449465811969 43755.796004098367 -5500.405871582032 53866.616888297875 4460.1813410306049 57495.962246621624 63765.534523809532 432.0943369182076 -11663.151423956262 94565.073958333349 -9988.868578146823 -8433.9581973121294 -1400.5509677946015 -4540.8179829832998 -7783.8794854525859 -8565.3857636167722 18604.253521126764 46385.573852040819 14026.011336555755 9966.363985148515 91903.916953592823 122689.92836538464 39367.178125000006 -6309.1572110615089 -2175.6706053234279 2606.3550071022728 -11856.653087593211 133943.25 -9986.200966706645 -11389.391627872326 76435.866666666669 38590.611428571428 -10841.512449217924 -40.58002830189983 56587.832012195118 -1603.1464109259139 17853.564397321428 65398.988257575758 -5092.3193443080363 -11712.510366070263 -7407.8881239853908 -2261.3807473037941 -3678.8078615083027 20282.329431818183 -11087.257079164501 -6587.6047370642282 -4380.4154023375695
leaf_weight=1579 23 24 40 98 28 25 45 27 30 264 210 26 20 99 25 971 31 35 3110 522 39 200 30 121 32 170 408 120 28 23 21 188 30 403 203 3572 195 197 37 649 48 21 44 85 3225 29 544 27 614 40 251 823 117 61 96 47 339 37 21 254 2515 24 1432 672 323 247 58 638 71 49 139 101 668 26 20 63 42 66 8918 22 1407 12479 21 35 4723 127 41 59 28 33 280 15307 308 481 271 55 962 796 158
leaf_count=1579 23 24 40 98 28 25 45 27 30 264 210 26 20 99 25 971 31 35 3110 522 39 200 30 121 32 170 408 120 28 23 21 188 30 403 203 3572 195 197 37 649 48 21 44 85 3225 29 544 27 614 40 251 823 117 61 96 47 339 37 21 254 2515 24 1432 672 323 247 58 638 71 49 139 101 668 26 20 63 42 66 8918 22 1407 12479 21 35 4723 127 41 59 28 33 280 15307 308 481 271 55 962 796 158
internal_value=0 145486 137876 -7843.38 694008 205462 198250 100744 36054.4 -10377.6 89071.5 327773 206857 377.421 25207.9 205354 120067 49106.2 -11095.7 23550.9 93938.3 48082.1 207551 4480.23 130252 26052 -9240.21 102309 60879.1 295851 11984 105021 148483 3061.45 51202.4 -11491.4 4434.05 -3333.84 90544.1 50088.2 181712 124618 10382.2 15383.3 -9745.85 68627.1 42048.2 76922.3 28449.7 29553.3 7086.69 118027 25934.9 41872.9 -6770.26 53131.1 2839.6 51205.3 55684.4 -349.951 -11646.7 89054.4 -10824.8 -9186.52 -1918.34 -4837.3 -7211.33 -9364.36 18150.8 44071.9 12919.5 8499.46 91742.1 120019 42672.2 -8251.84 -4430.84 880.545 -11790.3 131677 -10315.2 -11414.3 74176.1 37108.4 -10969.1 -1016.74 55134.5 -2842.11 16187.4 64078.7 -5549.02 -11765.6 -7858.35 -2516.75 -4089.85 19336.8 -11367.8 -6668.85 -4803.73
internal_weight=0 3800 3748 70486 52 1329 1255 2419 3847 66639 1508 74 1114 4171 2101 1094 911 1746 62468 1911 1286 1684 1001 1981 141 1463 10981 371 222 48 315 308 61 1666 1110 51487 1188 2190 915 889 93 109 294 448 9115 111 574 62 941 654 446 850 287 190 1866 111 742 686 221 478 41760 63 9727 4598 1128 1062 1570 3863 211 130 237 222 705 66 81 735 296 320 25804 43 4517 15956 50 60 8295 450 88 158 72 61 544 24225 716 678 518 126 13441 854 254
internal_count=74286 3800 3748 70486 52 1329 1255 2419 3847 66639 1508 74 1114 4171 2101 1094 911 1746 62468 1911 1286 1684 1001 1981 141 1463 10981 371 222 48 315 308 61 1666 1110 51487 1188 2190 915 889 93 109 294 448 9115 111 574 62 941 654 446 850 287 190 1866 111 742 686 221 478 41760 63 9727 4598 1128 1062 1570 3863 211 130 237 222 705 66 81 735 296 320 25804 43 4517 15956 50 60 8295 450 88 158 72 61 544 24225 716 678 518 126 13441 854 254
is_linear=0
shrinkage=0.1


Tree=8
num_leaves=100
num_cat=0
split_feature=5 5 5 3 5 3 1 1 3 5 1 1 1 1 1 5 1 5 3 5 5 3 1 1 5 3 5 3 3 3 1 3 5 1 1 1 5 5 1 3 5 5 3 3 1 3 1 3 1 1 1 5 5 1 3 1 1 3 3 1 1 1 5 1 1 5 3 5 5 3 5 3 5 3 5 1 1 1 3 5 1 1 3 5 1 1 3 3 1 1 3 5 1 1 3 3 5 3 1
split_gain=6.83391e+15 1.28166e+15 8.09477e+14 6.04926e+14 1.14021e+14 7.2241e+13 5.86386e+13 5.42141e+13 5.09951e+13 3.92091e+13 2.283e+13 1.90354e+13 1.13483e+13 8.5747e+12 6.13777e+12 5.47256e+12 4.99676e+12 4.33722e+12 3.92351e+12 3.41181e+12 2.71917e+12 2.5723e+12 2.42775e+12 2.20191e+12 2.14666e+12 1.45984e+12 1.44389e+12 1.12375e+12 9.76973e+11 9.20508e+11 8.97346e+11 8.77052e+11 8.41155e+11 8.39624e+11 7.94339e+11 7.29961e+11 7.0608e+11 6.25748e+11 5.51124e+11 4.87536e+11 4.56945e+11 4.37528e+11 3.59347e+11 2.64897e+11 2.59919e+11 2.57565e+11 2.35496e+11 2.08816e+11 2.03434e+11 1.65457e+11 1.55954e+11 1.27736e+11 1.27131e+11 1.23293e+11 1.11116e+11 1.06737e+11 1.06659e+11 9.90374e+10 8.53589e+10 8.47695e+10 8.45256e+10 8.32277e+10 6.57109e+10 6.52213e+10 6.48668e+10 5.94579e+10 5.37553e+10 5.3182e+10 4.91028e+10 4.62661e+10 3.62397e+10 3.59641e+10 3.21043e+10 3.05521e+10 2.95861e+10 2.68107e+10 2.57553e+10 2.25085e+10 2.08449e+10 2.07221e+10 2.02268e+10 1.90617e+10 1.85198e+10 1.74237e+10 1.7346e+10 1.66501e+10 1.35687e+10 1.33683e+10 1.31046e+10 1.23209e+10 1.20997e+10 1.19554e+10 1.05021e+10 1.02313e+10 9.90097e+09 9.9001e+09 9.63789e+09 9.52202e+09 9.28862e+09
threshold=8133.5000000000009 55616.000000000007 18309.500000000004 2963.0000000000005 35858.000000000007 155970.00000000003 4802.0000000000009 2914.5000000000005 11435.000000000002 845.50000000000011 10300.000000000002 2299.5000000000005 15477.500000000002 5766.0000000000009 973.00000000000011 2244.5000000000005 5508.0000000000009 15091.500000000002 249.00000000000003 3542.0000000000005 3861.0000000000005 32822.000000000007 5735.0000000000009 2775.0000000000005 2435.0000000000005 1120.0000000000002 10567.000000000002 15967.000000000002 24154.500000000004 5035.0000000000009 2685.5000000000005 6733.0000000000009 508.50000000000006 1662.5000000000002 3770.0000000000005 558.00000000000011 11443.000000000002 143.00000000000003 1335.0000000000002 7576.5000000000009 5086.5000000000009 13167.000000000002 7562.0000000000009 7921.5000000000009 1849.0000000000002 891.00000000000011 5165.0000000000009 15810.000000000002 3886.5000000000005 3244.5000000000005 307.50000000000006 979.00000000000011 2530.0000000000005 4802.0000000000009 64.500000000000014 176.50000000000003 651.00000000000011 172.00000000000003 4222.5000000000009 2424.5000000000005 841.50000000000011 1451.5000000000002 1924.0000000000002 10300.000000000002 1662.5000000000002 4448.5000000000009 1922.0000000000002 276.50000000000006 9547.5000000000018 544.50000000000011 398.50000000000006 747.00000000000011 19122.000000000004 354.50000000000006 1924.0000000000002 916.50000000000011 5123.5000000000009 151.50000000000003 965.00000000000011 3551.0000000000005 743.50000000000011 2198.0000000000005 30.500000000000004 11208.500000000002 710.00000000000011 291.50000000000006 6159.5000000000009 3979.5000000000005 1790.5000000000002 1165.5000000000002 149.50000000000003 15091.500000000002 2357.5000000000005 1849.0000000000002 60.000000000000007 684.50000000000011 1434.0000000000002 3458.5000000000005 57.500000000000007
decision_type=2 2 2 2 2 2 2 2 2 2 2 2 2 2 2 2 2 2 2 2 2 2 2 2 2 2 2 2 2 2 2 2 2 2 2 2 2 2 2 2 2 2 2 2 2 2 2 2 2 2 2 2 2 2 2 2 2 2 2 2 2 2 2 2 2 2 2 2 2 2 2 2 2 2 2 2 2 2 2 2 2 2 2 2 2 2 2 2 2 2 2 2 2 2 2 2 2 2 2
left_child=3 2 8 9 6 -3 34 14 11 18 21 31 16 26 24 25 46 41 37 48 23 -6 27 33 60 45 68 39 -18 58 59 86 55 52 72 66 76 54 51 53 81 63 -32 -41 88 71 -8 -36 -9 -38 69 75 -16 -21 82 67 -37 90 87 92 96 -42 -53 -15 -40 -26 -17 -20 -10 -34 85 95 -4 -69 -62 -27 -28 -59 -47 -35 -52 -31 -1 -46 -58 -57 -2 -22 -33 -60 -39 -44 -13 -66 -84 -11 -5 -67 -56
right_child=1 5 4 7 10 -7 12 19 13 15 -12 30 -14 17 20 35 28 -19 32 22 29 -23 -24 -25 65 38 36 -29 -30 40 42 44 50 79 47 56 49 57 64 43 61 -43 91 -45 83 78 -48 -49 -50 -51 80 62 -54 -55 98 70 84 77 89 -61 74 -63 -64 -65 93 97 -68 73 -70 -71 -72 -73 -74 -75 -76 -77 -78 -79 -80 -81 -82 -83 94 -85 -86 -87 -88 -89 -90 -91 -92 -93 -94 -95 -96 -97 -98 -99 -100
leaf_value=-10977.758682730639 38717.922946428575 539204.41300000006 106453.79750000002 1052.2298482259116 238086.97785714289 790793.71666666679 155736.41875000001 30220.441737689394 69317.475000000006 -5434.8729142374068 358362.87205882353 65753.011500000008 260152.63125000001 102509.14649390244 8907.1502089389542 3765.9679253798263 185503.58411703241 140427.20625000002 -9183.1927291170341 49339.107127463059 21437.306750000003 281138.625 74432.102929687506 26023.980374410377 15441.547912176726 -3170.1023844401043 85220.078860294132 64137.920357142859 201087.2023809524 26287.986956521741 77881.07273809523 48479.957513297879 -7080.0445681423626 19351.736602165525 119181.2696875 9313.0286050977647 92389.836556603783 -10042.154153516487 5017.8116540380279 41688.674659653472 34511.343465909093 120379.28233695653 82536.036265082963 45823.026839339342 56787.348401162788 -3042.0920283917685 166079.46224489796 130833.67749999999 38308.354967652493 99163.058738938067 -4355.9556389318304 225.52863012366097 14227.751620678191 57388.978273809531 -10304.984957262945 -8258.0638002468258 11756.259621263587 -9410.5716461008924 26351.205104166667 74689.594034090915 4350.2126364511987 39755.683666237113 2074.2665899634821 106597.48949242425 7729.9228750000002 17597.916573660714 6074.0613321109704 -8648.7222323739461 76095.47744565217 -5990.5526425781254 -6362.3008942018078 -3786.8427004708665 110785.70541666668 -7901.6562094155852 7656.9665334302326 -39.647040473090279 88330.034627016139 -8716.9289422384845 -1905.6315663856637 22479.051917613637 -2131.6825329838971 29683.415730932204 -10672.252773876404 60250.844318181829 13688.201803523938 -7538.5698263741506 41358.550213068185 24072.852752976192 50929.048170731709 28622.937837009802 -9787.5826704361225 84964.560714285719 68792.27916666666 10349.365266047298 -10541.506671886607 -4571.9495623964249 2905.3811438519024 19342.923987676058 -10073.990580267455
leaf_weight=1317 35 25 40 72 35 21 40 33 20 268 34 25 20 41 86 208 957 40 1679 203 25 23 32 530 116 114 34 35 42 23 210 47 720 583 40 179 53 3624 83 202 44 23 663 666 43 205 49 25 541 113 247 730 94 21 13926 709 92 4594 45 22 73 97 261 825 25 56 196 2608 23 850 166 443 30 693 43 36 124 521 759 22 49 59 9523 22 94 589 44 84 41 51 3855 21 21 37 14807 264 46 71 1991
leaf_count=1317 35 25 40 72 35 21 40 33 20 268 34 25 20 41 86 208 957 40 1679 203 25 23 32 530 116 114 34 35 42 23 210 47 720 583 40 179 53 3624 83 202 44 23 663 666 43 205 49 25 541 113 247 730 94 21 13926 709 92 4594 45 22 73 97 261 825 25 56 196 2608 23 850 166 443 30 693 43 36 124 521 759 22 49 59 9523 22 94 589 44 84 41 51 3855 21 21 37 14807 264 46 71 1991
internal_value=0 129361 123051 -7111.48 185877 654060 177927 30893.6 89366.2 -9371.94 293300 74456.7 185508 103102 20546.6 233.821 184136 108215 -9986.1 44148.3 23297.3 255159 47270.9 21043.9 10495.4 -1573.73 90160.9 46499.6 186159 30220.5 80657.3 48745.4 -7962.89 17681.6 115702 7814.24 92446 -10296.5 1038.77 45934.3 34667.1 106766 81499.6 44860.9 53163.6 -3306.41 161431 123663 37843.4 97000.5 -6093.24 300.787 11685.7 50093.8 -10483.6 -8504.29 11055.6 -9679.02 25383.6 69582.9 3659.11 38119.2 712.434 106404 6845.92 17078.4 4885.74 -8724.96 72943 -6490.19 -7753.64 -4452.43 108310 -8491.89 5576.02 -2418.81 87660.8 -9339.92 -2147.31 19465.5 -3987.76 28731.1 -10612.5 57959.7 12732.6 -7931.58 40188.7 23468.4 49621 27558.1 -9910.94 82610.6 67140.6 9293.19 -10592.7 -5006.66 1774.67 18573.5 -10276.1
internal_weight=0 3871 3825 70415 1335 46 1243 3953 2490 66462 92 1194 1108 1296 2220 3994 1088 929 62468 1733 1743 58 1159 1315 477 3225 367 1127 999 428 962 232 8310 785 135 769 324 54158 1286 1092 223 889 894 868 153 1939 89 65 574 166 1866 1141 180 224 41564 6444 365 12594 205 68 234 141 991 866 145 243 404 4980 43 1570 1464 975 70 3301 116 150 158 5115 964 605 296 82 25647 65 186 1298 79 109 88 96 7479 684 46 62 24330 532 118 127 15917
internal_count=74286 3871 3825 70415 1335 46 1243 3953 2490 66462 92 1194 1108 1296 2220 3994 1088 929 62468 1733 1743 58 1159 1315 477 3225 367 1127 999 428 962 232 8310 785 135 769 324 54158 1286 1092 223 889 894 868 153 1939 89 65 574 166 1866 1141 180 224 41564 6444 365 12594 205 68 234 141 991 866 145 243 404 4980 43 1570 1464 975 70 3301 116 150 158 5115 964 605 296 82 25647 65 186 1298 79 109 88 96 7479 684 46 62 24330 532 118 127 15917
is_linear=0
shrinkage=0.1


Tree=9
num_leaves=100
num_cat=0
split_feature=6 6 5 6 1 6 1 1 1 5 1 1 5 1 5 5 5 5 1 1 5 5 5 5 5 5 5 1 5 5 6 5 5 1 6 5 5 6 5 5 5 1 1 1 5 6 5 1 5 1 5 5 1 1 1 1 1 1 1 1 1 5 5 5 1 1 6 5 1 1 5 5 1 1 6 1 5 1 5 5 5 1 5 1 5 1 6 1 5 1 6 5 1 1 5 5 1 5 1
split_gain=5.56237e+15 1.04616e+15 6.16288e+14 5.14341e+14 9.70694e+13 7.60322e+13 4.82151e+13 3.589e+13 3.56206e+13 3.37464e+13 1.35823e+13 9.2775e+12 8.45527e+12 4.18848e+12 3.81599e+12 3.53585e+12 3.29535e+12 3.0204e+12 2.70201e+12 2.56257e+12 2.42706e+12 2.15461e+12 2.05888e+12 1.50789e+12 1.39769e+12 9.85704e+11 8.97305e+11 8.96471e+11 8.78034e+11 8.24697e+11 7.48743e+11 6.59436e+11 5.2391e+11 5.12331e+11 3.86843e+11 3.71558e+11 3.66322e+11 3.48222e+11 3.01486e+11 2.84515e+11 2.39047e+11 2.06246e+11 1.99707e+11 1.92202e+11 1.88515e+11 1.86338e+11 1.74486e+11 1.71031e+11 3.03229e+11 1.4416e+11 1.37743e+11 1.29795e+11 1.2928e+11 1.26727e+11 1.25651e+11 9.93634e+10 9.22753e+10 8.46314e+10 7.85213e+10 7.76255e+10 7.73863e+10 6.76094e+10 5.95791e+10 5.79305e+10 5.16611e+10 4.22197e+10 4.00207e+10 3.70702e+10 3.21306e+10 3.10173e+10 3.01414e+10 2.8381e+10 2.71383e+10 2.48886e+10 2.44249e+10 2.42341e+10 2.33871e+10 2.05381e+10 1.62916e+10 1.50179e+10 1.36578e+10 1.31675e+10 1.3082e+10 1.16181e+10 1.11041e+10 1.08306e+10 1.07133e+10 8.50306e+09 7.89047e+09 7.78707e+09 7.5242e+09 7.29829e+09 6.99957e+09 6.90496e+09 6.4424e+09 6.27198e+09 6.16504e+09 6.01832e+09 5.56809e+09
threshold=3953.5000000000005 25870.500000000004 18309.500000000004 1487.5000000000002 34792.000000000007 17923.500000000004 5072.0000000000009 6647.0000000000009 2914.5000000000005 845.50000000000011 2424.5000000000005 13739.500000000002 51180.000000000007 345.50000000000006 6467.0000000000009 15091.500000000002 7332.0000000000009 240.50000000000003 5735.0000000000009 897.50000000000011 11208.500000000002 23003.500000000004 3542.0000000000005 34090.500000000007 2634.5000000000005 2024.5000000000002 508.50000000000006 3037.5000000000005 10460.000000000002 3248.5000000000005 21035.500000000004 11909.000000000002 1317.0000000000002 897.50000000000011 9579.0000000000018 4568.5000000000009 13167.000000000002 68.500000000000014 1302.0000000000002 8807.5000000000018 4962.0000000000009 1012.0000000000001 762.50000000000011 78.000000000000014 28737.500000000004 2289.5000000000005 8921.0000000000018 2072.0000000000005 4448.5000000000009 2299.5000000000005 5303.0000000000009 8921.0000000000018 1451.5000000000002 337.00000000000006 630.50000000000011 4802.0000000000009 27.500000000000004 402.50000000000006 2685.5000000000005 131.50000000000003 10300.000000000002 5965.0000000000009 19546.500000000004 2109.0000000000005 167.50000000000003 153.50000000000003 701.50000000000011 1057.5000000000002 1572.5000000000002 1188.0000000000002 4247.5000000000009 398.50000000000006 700.50000000000011 5072.0000000000009 4531.5000000000009 558.00000000000011 407.50000000000006 1525.5000000000002 67.500000000000014 304.00000000000006 73.500000000000014 858.50000000000011 928.50000000000011 1335.0000000000002 172.50000000000003 307.50000000000006 310.50000000000006 2357.5000000000005 11208.500000000002 180.50000000000003 614.50000000000011 1118.0000000000002 1505.5000000000002 612.00000000000011 2781.5000000000005 528.50000000000011 104.50000000000001 43.500000000000007 10512.000000000002
decision_type=2 2 2 2 2 2 2 2 2 2 2 2 2 2 2 2 2 2 2 2 2 2 2 2 2 2 2 2 2 2 2 2 2 2 2 2 2 2 2 2 2 2 2 2 2 2 2 2 2 2 2 2 2 2 2 2 2 2 2 2 2 2 2 2 2 2 2 2 2 2 2 2 2 2 2 2 2 2 2 2 2 2 2 2 2 2 2 2 2 2 2 2 2 2 2 2 2 2 2
left_child=3 2 7 9 -3 6 21 10 14 17 28 18 30 38 19 36 22 37 44 42 39 34 45 -20 32 -21 43 58 51 41 -7 -29 54 57 62 55 60 56 67 -12 -37 75 72 79 -8 -10 -18 50 -49 88 -27 -2 83 65 82 -24 78 -34 -22 84 -9 -42 -4 -35 76 86 90 89 77 -56 -44 -66 93 -41 -53 -26 -45 92 97 -19 -58 -55 -15 -16 -39 -68 -28 -51 -30 -11 -40 -69 -54 -5 -43 -67 -82 -1 -62
right_child=1 4 5 8 -6 12 11 15 16 13 20 -13 -14 24 52 -17 46 26 23 25 27 -23 35 -25 29 47 53 31 49 -31 -32 -33 33 63 -36 40 -38 59 66 73 61 94 70 64 -46 -47 -48 48 -50 87 -52 74 68 81 69 -57 80 -59 -60 -61 98 -63 -64 -65 71 95 85 91 -70 -71 -72 -73 -74 -75 -76 -77 -78 -79 -80 -81 96 -83 -84 -85 -86 -87 -88 -89 -90 -91 -92 -93 -94 -95 -96 -97 -98 -99 -100
leaf_value=-9911.1383438043958 36903.532948369568 415733.1947916667 96433.796759259261 7848.9840029761908 689801.57678571437 228021.59750000003 146314.72544642858 90287.550240384619 26386.181666666667 -4886.5538485440338 70103.864479166674 216479.00822368424 310809.38461538462 -3162.9912676836993 28455.686187500003 126384.48875 57736.608750000007 -8479.7663070315048 167094.78293039321 17625.003624880268 67220.632386363635 131470.869140625 44418.325656250003 191064.38240740742 5940.0969783057853 18269.580678013393 -6669.4879619891835 79745.232824427483 51744.53326612903 29394.527929687501 253024.75 89093.618012640451 1144.3027121472714 6328.5951998873879 110273.28201219512 37509.068072660099 109354.23999999999 -9020.2068650265956 -2578.4752052268404 71769.866891891899 41178.631076656398 12144.373417467948 13248.493069852942 -7839.2757989340553 155442.28717105262 34482.16970932905 68437.179166666669 23386.877923961729 32372.966367187502 59177.711500000005 22760.833133928572 43763.193867924536 33923.957886904762 -3592.6961875194343 434.73010537979457 51650.084523809528 -9459.0108511431408 3166.8584432492639 74628.280182926843 -8089.8250180036666 95385.478761848353 45574.271875000006 102120.92566964286 9453.0342881944434 -7107.2822047615628 -6307.0602976831906 -1149.1089332793151 -3708.0519673582999 37737.604081632649 2746.1165210542226 15685.694419642859 -5737.2590688961991 11663.736298643867 74436.587714872949 46896.269015957449 8038.4248839727725 -7232.4247769742406 31710.093515625005 -9511.0337322358682 -8089.4233450825313 -9208.8943286777885 -1378.3303388041836 -1521.0743350630958 31280.41767857143 -8786.4900960062459 -59.074886664443127 -5931.2857835539544 61913.047916666663 54225.763068181826 -4129.4061146763397 -1844.6795754287941 -2956.4264543934505 36181.932500000003 9828.640170454546 14028.789453125 -5229.257223708506 -8009.0528161337206 -9651.8070779635218 95984.258210784319
leaf_weight=1149 23 24 54 21 28 25 56 26 30 264 210 38 26 74 25 40 35 3063 941 522 22 32 200 27 121 112 416 131 31 20 23 178 335 222 41 203 20 3572 197 37 649 39 85 2231 38 544 27 614 40 25 175 53 21 201 188 21 2515 541 41 1432 211 37 28 81 1308 58 323 247 49 84 126 171 106 669 47 101 888 20 20591 1454 13398 31 141 35 4723 127 373 21 22 280 481 271 40 110 34 787 43 4064 612
leaf_count=1149 23 24 54 21 28 25 56 26 30 264 210 38 26 74 25 40 35 3063 941 522 22 32 200 27 121 112 416 131 31 20 23 178 335 222 41 203 20 3572 197 37 649 39 85 2231 38 544 27 614 40 25 175 53 21 201 188 21 2515 541 41 1432 211 37 28 81 1308 58 323 247 49 84 126 171 106 669 47 101 888 20 20591 1454 13398 31 141 35 4723 127 373 21 22 280 481 271 40 110 34 787 43 4064 612
internal_value=0 117852 111672 -6353.56 563309 166379 160571 81615.1 29199.5 -8406 72164.5 167929 264881 302.8 20427.5 97314.3 39755.1 -8987.49 166191 19083.7 76101.9 108355 38921.5 167763 3634.67 21110.1 -7481.81 82913.7 49320 9743.32 240002 85130.4 2479.67 3619.39 102342 41435.9 95976.1 -9308.61 -2711.1 73335.6 40523.7 8411.02 12466.2 -7890.81 150005 34059 62396.6 23043.4 23936.5 56330 21008.2 43677.7 33943.4 -5483.92 -279.521 45105.5 -9434.13 2393.4 72041.5 -8769.76 95661 41415.7 98375.8 7163.85 -7435.67 -5794.44 -1572.63 -3920.31 35715.6 1148.55 14703.9 -6948.88 10474 74296.8 45235.8 6894.76 -7666.5 34492.4 -9551.02 -8354.12 -9245.08 -3296.82 -2086.21 30103.5 -8887.13 -841.484 -6320.51 60426.5 52774.5 -4496.85 -2057.9 -3314.83 35404.6 9511.31 13022.1 -5303.24 -9205.06 -9708.97 95830.7
internal_weight=0 3800 3748 70486 52 1329 1255 2419 3847 66639 1510 1100 74 4171 2101 909 1746 62468 1062 1911 1288 155 1684 968 1981 1463 10981 372 222 315 48 309 1666 1179 123 1110 869 51487 2190 916 889 295 448 9115 94 574 62 941 654 99 287 123 190 1866 487 221 41760 876 63 9727 849 686 82 303 4598 1634 1128 1062 130 272 211 1479 237 706 100 222 3119 81 25804 4517 15956 232 215 60 8295 450 789 46 53 544 678 518 61 131 73 845 13441 5213 823
internal_count=74286 3800 3748 70486 52 1329 1255 2419 3847 66639 1510 1100 74 4171 2101 909 1746 62468 1062 1911 1288 155 1684 968 1981 1463 10981 372 222 315 48 309 1666 1179 123 1110 869 51487 2190 916 889 295 448 9115 94 574 62 941 654 99 287 123 190 1866 487 221 41760 876 63 9727 849 686 82 303 4598 1634 1128 1062 130 272 211 1479 237 706 100 222 3119 81 25804 4517 15956 232 215 60 8295 450 789 46 53 544 678 518 61 131 73 845 13441 5213 823
is_linear=0
shrinkage=0.1


Tree=10
num_leaves=100
num_cat=0
split_feature=5 5 5 1 5 1 1 1 5 1 1 1 5 2 1 5 5 5 5 1 2 1 1 1 5 5 5 5 5 5 1 1 5 1 1 1 2 1 5 5 5 5 1 5 5 5 1 1 5 5 5 1 1 1 5 1 1 1 5 1 1 1 1 1 1 5 5 1 5 5 5 2 5 2 1 2 5 1 1 5 5 5 1 5 1 5 1 5 1 2 1 1 1 1 1 2 1 1 5
split_gain=4.4842e+15 8.45095e+14 5.30483e+14 3.88555e+14 7.43574e+13 4.35376e+13 3.85684e+13 3.30394e+13 2.2467e+13 1.61102e+13 1.46902e+13 7.88933e+12 7.58471e+12 3.32554e+12 3.2943e+12 2.83018e+12 2.69717e+12 2.25637e+12 2.23873e+12 1.94297e+12 1.79298e+12 1.61972e+12 1.52063e+12 1.13549e+12 1.06949e+12 9.60299e+11 9.05887e+11 8.81128e+11 8.67088e+11 7.1997e+11 6.13261e+11 5.11721e+11 4.95326e+11 4.57702e+11 4.24017e+11 3.40632e+11 3.24425e+11 3.18574e+11 2.89275e+11 2.81586e+11 2.59042e+11 2.40996e+11 2.40707e+11 1.92312e+11 1.77261e+11 1.71597e+11 1.55683e+11 1.3314e+11 1.28429e+11 1.20374e+11 9.72426e+10 9.14549e+10 8.0482e+10 7.77108e+10 7.74297e+10 7.32631e+10 7.13408e+10 6.63191e+10 6.13971e+10 5.75013e+10 5.08118e+10 4.68912e+10 4.49e+10 4.23836e+10 3.95427e+10 3.73405e+10 2.64654e+10 2.38579e+10 2.21078e+10 2.16154e+10 1.99132e+10 1.80301e+10 1.5154e+10 1.3336e+10 1.28681e+10 1.28168e+10 1.21641e+10 1.20355e+10 1.19931e+10 1.10017e+10 1.06823e+10 1.04128e+10 9.71032e+09 9.3715e+09 8.99772e+09 8.50852e+09 8.18953e+09 7.81676e+09 7.31412e+09 7.18428e+09 6.5992e+09 6.26063e+09 5.19005e+09 5.13622e+09 5.12415e+09 5.11568e+09 4.72515e+09 4.66299e+09 4.40578e+09
threshold=8133.5000000000009 55616.000000000007 18309.500000000004 762.50000000000011 35858.000000000007 2914.5000000000005 4802.0000000000009 6647.0000000000009 928.50000000000011 2357.5000000000005 10300.000000000002 15477.500000000002 1738.5000000000002 25215.500000000004 5735.0000000000009 15091.500000000002 240.50000000000003 5791.0000000000009 3542.0000000000005 1790.5000000000002 141488.00000000003 5735.0000000000009 7802.0000000000009 3037.5000000000005 19546.500000000004 2740.5000000000005 2024.5000000000002 508.50000000000006 9809.0000000000018 6849.5000000000009 4935.0000000000009 3770.0000000000005 10460.000000000002 323.50000000000006 573.50000000000011 1313.0000000000002 20669.000000000004 5189.0000000000009 13167.000000000002 143.00000000000003 5086.5000000000009 8921.0000000000018 5508.0000000000009 1261.0000000000002 4448.5000000000009 4962.0000000000009 78.000000000000014 3886.5000000000005 1332.5000000000002 21667.500000000004 2109.0000000000005 307.50000000000006 4802.0000000000009 2842.5000000000005 11443.000000000002 27.500000000000004 1451.5000000000002 131.50000000000003 1215.5000000000002 1790.5000000000002 10478.500000000002 479.50000000000006 252.50000000000003 153.50000000000003 651.00000000000011 928.50000000000011 426.00000000000006 2277.5000000000005 19122.000000000004 1924.0000000000002 1118.0000000000002 1501.5000000000002 10567.000000000002 616.50000000000011 1165.5000000000002 622.50000000000011 304.00000000000006 1505.5000000000002 916.50000000000011 63.500000000000007 172.50000000000003 1485.0000000000002 1313.0000000000002 742.50000000000011 518.00000000000011 669.00000000000011 1790.5000000000002 8537.5000000000018 345.50000000000006 10227.500000000002 710.00000000000011 10512.000000000002 459.50000000000006 63.500000000000007 947.50000000000011 84065.000000000015 383.50000000000006 383.50000000000006 30.500000000000004
decision_type=2 2 2 2 2 2 2 2 2 2 2 2 2 2 2 2 2 2 2 2 2 2 2 2 2 2 2 2 2 2 2 2 2 2 2 2 2 2 2 2 2 2 2 2 2 2 2 2 2 2 2 2 2 2 2 2 2 2 2 2 2 2 2 2 2 2 2 2 2 2 2 2 2 2 2 2 2 2 2 2 2 2 2 2 2 2 2 2 2 2 2 2 2 2 2 2 2 2 2
left_child=3 2 7 8 6 12 31 9 16 28 22 14 43 33 37 38 39 19 47 25 30 29 -6 53 -16 50 67 46 41 36 72 68 -32 48 61 74 52 -8 60 55 -27 87 -25 65 -28 -38 76 -7 70 -33 -14 63 -20 -22 -30 73 95 80 -35 78 -9 92 66 85 -36 94 -48 -21 -4 88 -10 -64 -11 98 -19 -75 -18 -58 -45 -57 -41 -50 -67 96 -63 -29 -43 -2 -60 -65 -66 -62 -15 -81 -5 -37 -53 -71 -1
right_child=1 -3 4 5 10 18 11 15 13 20 -12 -13 17 34 24 -17 27 35 21 26 23 -23 -24 42 -26 40 44 51 54 -31 32 49 -34 58 64 56 45 -39 -40 57 -42 86 -44 59 -46 -47 62 -49 81 -51 -52 83 -54 -55 -56 79 77 -59 69 -61 91 84 71 89 90 82 -68 -69 -70 97 -72 -73 -74 75 -76 -77 -78 -79 -80 93 -82 -83 -84 -85 -86 -87 -88 -89 -90 -91 -92 -93 -94 -95 -96 -97 -98 -99 -100
leaf_value=-9017.7855284759971 31930.209758771933 530854.86141304346 86165.040625000009 -1924.9428521050349 188074.10100000002 24486.179521780305 127147.50808823531 82058.140290178577 -3537.6860558940639 57635.039189189185 289463.8455882353 212489.46875 4936.8526472107442 2823.4935350334122 149838.55386939013 113746.04015625 -7631.789742235962 21440.000416666669 39976.491328125005 12802.302690972223 61889.948551829264 60475.256445312501 220771.7643939394 78096.251953125 160523.7136904762 13418.325019349846 20789.189081468136 -5999.4690129206738 46394.815397727274 50835.979687500003 66011.104560614855 97158.862222222233 71917.534705882354 -1377.025107958638 7810.0443080357145 26540.542798913044 33758.161822660099 137780.52896825396 98418.814687500009 -8134.0595812074826 18963.042434210525 39255.641888297876 87139.917736486488 2310.0754475911458 27727.83339342949 37081.209219457014 -6944.8454996366272 31029.301842652494 -1717.5201796587776 106485.19437500002 9045.0796661931818 -4306.0080266378018 46485.075148809527 69056.464583333334 52412.668482142857 -8528.8233940776099 30531.563690476192 -7275.3169740905978 -192.05373964638545 8235.1581078506115 85897.702916666676 4599.0010670731708 -6188.9960962701616 -4858.5087190855065 9523.9665421195659 1024.7603981160671 -6239.8930177311922 15853.919863861387 89760.443541666667 1187.2223965172007 -2589.4977450742899 -4825.5408661684787 54267.977976190479 -7946.206774755271 23819.695040760871 -8572.5420020000074 -7280.4807588978692 33341.041545758926 4490.9204494012847 -8307.6216609710409 -7907.1139385753258 -1019.472337480025 2943.6729143415178 -2589.8563748790102 5866.1398285800969 -5341.5817003183656 41192.366615853658 34152.087215909087 729.6182548888429 -4229.7585718709188 10818.278940217393 86550.791856677533 3921.9119041313566 -8092.1127068770556 -269.52869424819949 28653.081250000003 -3346.9774171730323 2044.4679507984836 -8715.7199375321179
leaf_weight=552 57 46 40 45 25 33 51 28 518 37 34 20 121 159 869 40 3063 45 200 27 41 32 33 144 105 323 659 416 55 40 862 45 170 141 147 23 203 63 20 3675 114 47 37 33 39 663 3225 541 544 20 110 83 21 24 35 2213 21 1457 116 41 195 123 620 815 92 107 638 505 30 119 387 115 21 332 46 21039 1454 56 107 12345 4766 352 35 113 103 373 41 22 334 234 69 614 59 1216 32 23 135 136 3892
leaf_count=552 57 46 40 45 25 33 51 28 518 37 34 20 121 159 869 40 3063 45 200 27 41 32 33 144 105 323 659 416 55 40 862 45 170 141 147 23 203 63 20 3675 114 47 37 33 39 663 3225 541 544 20 110 83 21 24 35 2213 21 1457 116 41 195 123 620 815 92 107 638 505 30 119 387 115 21 332 46 21039 1454 56 107 12345 4766 352 35 113 103 373 41 22 334 234 69 614 59 1216 32 23 135 136 3892
internal_value=0 104788 99663.7 -5760.6 150524 23567.6 144103 72395.2 -7642.09 63751.4 237273 150252 15155.9 276.466 149108 87745.9 -8070.88 17547.3 35760.4 16449.7 68162.1 38289.8 206678 75873.5 150990 12108.1 18807.6 -6670.67 40822.7 37659.9 66421.7 93639.1 66984.1 -1390.73 6144.92 27281.5 37175 133024 86532.4 -8377.75 14864.8 36558.6 79945 2529.6 21176.9 36302.3 -7101.73 30653.1 -2291.98 100029 6893.16 -4859.17 40595 64536.1 48735.1 -8491.84 30713.2 -7898.38 527.873 4941.48 86248.4 4167.18 -6692.11 -5134.74 8995.94 536.199 -6828.42 15699.1 87706 908.857 -3132.22 -5975.67 56416 -8595.59 22643 -8562.81 -7518.71 32574.9 3976.89 -8322.04 -8005.92 -1443.29 1497.75 -3329 5176.52 -5688.46 40158 32549 492.025 -4718.26 10078.7 86393.4 3120.79 -8288.3 -1237.02 27596.9 -3712.13 1644.43 -8753.24
internal_weight=0 3871 3825 70415 1335 4245 1243 2490 66170 1593 92 1108 2512 3399 1088 897 62771 2112 1733 1898 1336 1159 58 246 974 668 1230 11284 257 1127 1090 135 1032 2647 752 214 1087 114 857 51487 437 167 181 400 698 866 9115 574 1801 65 231 2169 221 65 90 41589 123 9898 846 181 837 444 4598 1838 308 219 3863 532 70 705 905 735 58 25815 91 21371 4517 77 140 15774 8441 896 142 331 226 789 88 79 450 1049 161 809 218 13561 77 46 218 255 4444
internal_count=74286 3871 3825 70415 1335 4245 1243 2490 66170 1593 92 1108 2512 3399 1088 897 62771 2112 1733 1898 1336 1159 58 246 974 668 1230 11284 257 1127 1090 135 1032 2647 752 214 1087 114 857 51487 437 167 181 400 698 866 9115 574 1801 65 231 2169 221 65 90 41589 123 9898 846 181 837 444 4598 1838 308 219 3863 532 70 705 905 735 58 25815 91 21371 4517 77 140 15774 8441 896 142 331 226 789 88 79 450 1049 161 809 218 13561 77 46 218 255 4444
is_linear=0
shrinkage=0.1


Tree=11
num_leaves=100
num_cat=0
split_feature=6 1 5 6 5 6 1 1 1 5 1 1 1 1 5 1 5 5 5 1 5 5 5 5 6 5 5 1 5 5 5 5 1 5 5 1 6 5 1 1 5 5 5 5 1 6 5 1 6 1 5 1 1 1 5 1 5 1 1 6 1 6 1 1 6 5 1 5 5 1 5 1 1 5 6 1 5 5 5 1 1 5 6 5 1 1 6 1 5 1 1 6 6 1 1 5 1 1 5
split_gain=3.64982e+15 6.95552e+14 4.16817e+14 3.37432e+14 6.5573e+13 3.85295e+13 3.16552e+13 2.36152e+13 2.3288e+13 2.2125e+13 8.91748e+12 8.43052e+12 6.29061e+12 2.7395e+12 2.50142e+12 2.48129e+12 2.31486e+12 2.19237e+12 1.98156e+12 1.69546e+12 1.6015e+12 1.35867e+12 1.33631e+12 9.30682e+11 7.23939e+11 6.65526e+11 6.39707e+11 6.28953e+11 5.88559e+11 5.8059e+11 5.79104e+11 4.07742e+11 3.21195e+11 2.49088e+11 2.39156e+11 2.36159e+11 2.28935e+11 2.26865e+11 2.12105e+11 2.02819e+11 1.98079e+11 1.73526e+11 1.56813e+11 1.51711e+11 1.26103e+11 1.25176e+11 1.16772e+11 1.00023e+11 9.60312e+10 9.5585e+10 8.63333e+10 8.48619e+10 8.36884e+10 7.85741e+10 6.66654e+10 6.51881e+10 6.37973e+10 6.04518e+10 5.07659e+10 3.89768e+10 3.67628e+10 3.35132e+10 2.91176e+10 2.86638e+10 2.67036e+10 2.48633e+10 2.43768e+10 2.4231e+10 2.13792e+10 2.13181e+10 2.06256e+10 2.04621e+10 1.81846e+10 1.60757e+10 1.57366e+10 1.49076e+10 1.33141e+10 1.20773e+10 1.18204e+10 1.11556e+10 1.02852e+10 1.01136e+10 9.91532e+09 9.23008e+09 8.30758e+09 7.5811e+09 7.40694e+09 6.15718e+09 5.9853e+09 5.89215e+09 5.82468e+09 5.3018e+09 5.25013e+09 4.97886e+09 4.94736e+09 4.91551e+09 4.75585e+09 4.4089e+09 4.3701e+09
threshold=3953.5000000000005 25867.500000000004 18309.500000000004 1487.5000000000002 38686.000000000007 30664.000000000004 4935.0000000000009 6647.0000000000009 2914.5000000000005 845.50000000000011 2424.5000000000005 10300.000000000002 15477.500000000002 345.50000000000006 6467.0000000000009 5735.0000000000009 15091.500000000002 7332.0000000000009 240.50000000000003 858.50000000000011 11208.500000000002 19546.500000000004 3542.0000000000005 2435.0000000000005 21035.500000000004 21112.000000000004 3248.5000000000005 5427.5000000000009 508.50000000000006 10460.000000000002 2024.5000000000002 17149.000000000004 841.50000000000011 4568.5000000000009 13167.000000000002 1012.0000000000001 68.500000000000014 8807.5000000000018 5189.0000000000009 592.50000000000011 1302.0000000000002 1215.5000000000002 1215.5000000000002 4962.0000000000009 78.000000000000014 2289.5000000000005 8921.0000000000018 4090.0000000000005 9191.5000000000018 2299.5000000000005 8921.0000000000018 307.50000000000006 1398.5000000000002 723.50000000000011 12908.000000000002 4802.0000000000009 3966.0000000000005 27.500000000000004 131.50000000000003 928.50000000000011 167.50000000000003 992.00000000000011 10300.000000000002 1572.5000000000002 701.50000000000011 1057.5000000000002 134.50000000000003 5965.0000000000009 290.50000000000006 1012.0000000000001 2740.5000000000005 5072.0000000000009 789.50000000000011 407.50000000000006 4531.5000000000009 1525.5000000000002 19122.000000000004 79.500000000000014 710.50000000000011 459.50000000000006 651.00000000000011 5086.5000000000009 143.50000000000003 61.500000000000007 1188.0000000000002 307.50000000000006 82.500000000000014 1505.5000000000002 43.500000000000007 543.00000000000011 446.50000000000006 628.00000000000011 379.50000000000006 2357.5000000000005 176.50000000000003 11208.500000000002 1335.0000000000002 104.50000000000001 1118.0000000000002
decision_type=2 2 2 2 2 2 2 2 2 2 2 2 2 2 2 2 2 2 2 2 2 2 2 2 2 2 2 2 2 2 2 2 2 2 2 2 2 2 2 2 2 2 2 2 2 2 2 2 2 2 2 2 2 2 2 2 2 2 2 2 2 2 2 2 2 2 2 2 2 2 2 2 2 2 2 2 2 2 2 2 2 2 2 2 2 2 2 2 2 2 2 2 2 2 2 2 2 2 2
left_child=3 2 7 9 6 -3 25 10 14 18 29 24 15 40 19 38 34 22 36 53 37 -17 45 32 -6 48 39 31 44 50 -21 -22 42 55 62 81 57 -12 -8 70 65 84 79 -35 82 -10 -19 -27 76 95 -2 66 96 80 -29 -24 -37 77 86 -43 73 -44 -9 75 91 94 -30 -45 -62 -41 -25 -39 -55 -46 -52 87 -4 88 90 -15 -5 -32 -20 -59 -34 -66 -38 -54 -1 -80 -53 -42 -68 -51 -11 -31 -16 -85 -67
